{"learner":{"attributes":{"scikit_learn":"{\"_estimator_type\": \"regressor\"}"},"feature_names":[],"feature_types":[],"gradient_booster":{"model":{"cats":{"enc":[],"feature_segments":[],"sorted_idx":[]},"gbtree_model_param":{"num_parallel_tree":"1","num_trees":"600"},"iteration_indptr":[0,1,2,3,4,5,6,7,8,9,10,11,12,13,14,15,16,17,18,19,20,21,22,23,24,25,26,27,28,29,30,31,32,33,34,35,36,37,38,39,40,41,42,43,44,45,46,47,48,49,50,51,52,53,54,55,56,57,58,59,60,61,62,63,64,65,66,67,68,69,70,71,72,73,74,75,76,77,78,79,80,81,82,83,84,85,86,87,88,89,90,91,92,93,94,95,96,97,98,99,100,101,102,103,104,105,106,107,108,109,110,111,112,113,114,115,116,117,118,119,120,121,122,123,124,125,126,127,128,129,130,131,132,133,134,135,136,137,138,139,140,141,142,143,144,145,146,147,148,149,150,151,152,153,154,155,156,157,158,159,160,161,162,163,164,165,166,167,168,169,170,171,172,173,174,175,176,177,178,179,180,181,182,183,184,185,186,187,188,189,190,191,192,193,194,195,196,197,198,199,200,201,202,203,204,205,206,207,208,209,210,211,212,213,214,215,216,217,218,219,220,221,222,223,224,225,226,227,228,229,230,231,232,233,234,235,236,237,238,239,240,241,242,243,244,245,246,247,248,249,250,251,252,253,254,255,256,257,258,259,260,261,262,263,264,265,266,267,268,269,270,271,272,273,274,275,276,277,278,279,280,281,282,283,284,285,286,287,288,289,290,291,292,293,294,295,296,297,298,299,300,301,302,303,304,305,306,307,308,309,310,311,312,313,314,315,316,317,318,319,320,321,322,323,324,325,326,327,328,329,330,331,332,333,334,335,336,337,338,339,340,341,342,343,344,345,346,347,348,349,350,351,352,353,354,355,356,357,358,359,360,361,362,363,364,365,366,367,368,369,370,371,372,373,374,375,376,377,378,379,380,381,382,383,384,385,386,387,388,389,390,391,392,393,394,395,396,397,398,399,400,401,402,403,404,405,406,407,408,409,410,411,412,413,414,415,416,417,418,419,420,421,422,423,424,425,426,427,428,429,430,431,432,433,434,435,436,437,438,439,440,441,442,443,444,445,446,447,448,449,450,451,452,453,454,455,456,457,458,459,460,461,462,463,464,465,466,467,468,469,470,471,472,473,474,475,476,477,478,479,480,481,482,483,484,485,486,487,488,489,490,491,492,493,494,495,496,497,498,499,500,501,502,503,504,505,506,507,508,509,510,511,512,513,514,515,516,517,518,519,520,521,522,523,524,525,526,527,528,529,530,531,532,533,534,535,536,537,538,539,540,541,542,543,544,545,546,547,548,549,550,551,552,553,554,555,556,557,558,559,560,561,562,563,564,565,566,567,568,569,570,571,572,573,574,575,576,577,578,579,580,581,582,583,584,585,586,587,588,589,590,591,592,593,594,595,596,597,598,599,600],"tree_info":[0,0,0,0,0,0,0,0,0,0,0,0,0,0,0,0,0,0,0,0,0,0,0,0,0,0,0,0,0,0,0,0,0,0,0,0,0,0,0,0,0,0,0,0,0,0,0,0,0,0,0,0,0,0,0,0,0,0,0,0,0,0,0,0,0,0,0,0,0,0,0,0,0,0,0,0,0,0,0,0,0,0,0,0,0,0,0,0,0,0,0,0,0,0,0,0,0,0,0,0,0,0,0,0,0,0,0,0,0,0,0,0,0,0,0,0,0,0,0,0,0,0,0,0,0,0,0,0,0,0,0,0,0,0,0,0,0,0,0,0,0,0,0,0,0,0,0,0,0,0,0,0,0,0,0,0,0,0,0,0,0,0,0,0,0,0,0,0,0,0,0,0,0,0,0,0,0,0,0,0,0,0,0,0,0,0,0,0,0,0,0,0,0,0,0,0,0,0,0,0,0,0,0,0,0,0,0,0,0,0,0,0,0,0,0,0,0,0,0,0,0,0,0,0,0,0,0,0,0,0,0,0,0,0,0,0,0,0,0,0,0,0,0,0,0,0,0,0,0,0,0,0,0,0,0,0,0,0,0,0,0,0,0,0,0,0,0,0,0,0,0,0,0,0,0,0,0,0,0,0,0,0,0,0,0,0,0,0,0,0,0,0,0,0,0,0,0,0,0,0,0,0,0,0,0,0,0,0,0,0,0,0,0,0,0,0,0,0,0,0,0,0,0,0,0,0,0,0,0,0,0,0,0,0,0,0,0,0,0,0,0,0,0,0,0,0,0,0,0,0,0,0,0,0,0,0,0,0,0,0,0,0,0,0,0,0,0,0,0,0,0,0,0,0,0,0,0,0,0,0,0,0,0,0,0,0,0,0,0,0,0,0,0,0,0,0,0,0,0,0,0,0,0,0,0,0,0,0,0,0,0,0,0,0,0,0,0,0,0,0,0,0,0,0,0,0,0,0,0,0,0,0,0,0,0,0,0,0,0,0,0,0,0,0,0,0,0,0,0,0,0,0,0,0,0,0,0,0,0,0,0,0,0,0,0,0,0,0,0,0,0,0,0,0,0,0,0,0,0,0,0,0,0,0,0,0,0,0,0,0,0,0,0,0,0,0,0,0,0,0,0,0,0,0,0,0,0,0,0,0,0,0,0,0,0,0,0,0,0,0,0,0,0,0,0,0,0,0,0,0,0,0,0,0,0,0,0,0,0,0,0,0,0,0,0,0,0,0,0,0,0,0,0,0,0,0,0,0,0,0,0,0,0,0,0,0,0,0,0,0,0,0,0,0,0,0,0,0,0,0,0,0,0,0,0,0,0,0,0,0,0,0,0,0,0,0,0,0,0,0],"trees":[{"base_weights":[-4.9999956E-4,-6.9275373E-1,3.3933496E-1,-1.0848941E0,-1.6782804E-1,-6.59467E-2,7.470709E-1,-1.0986181E-1,-9.7393435E-1,-5.2384604E-2,-8.457967E-2,-7.124644E-1,1.5148695E-1,8.270902E-2,9.104673E-1,-1.4350151E0,-8.094481E-1,-6.199314E-1,4.6305094E-2,-9.326602E-2,-6.495857E-1,-1.0193107E0,2.1778116E-1,-5.648072E-2,4.4214478E-1,-6.962635E-1,9.8030955E-1,-8.097133E-2,-4.6361808E-2,-5.0869327E-2,-3.1310365E-2,-3.3422608E-2,1.4839768E-3,-6.518036E-3,1.5649246E-2,-3.740955E-2,-1.4571029E-2,-8.9688025E-2,-2.3110032E-2,3.9925477E-3,2.9793153E-2,-7.180436E-3,6.171167E-3,1.2473297E-2,2.8056642E-2,-6.127403E-2,3.5097005E-4,4.2362504E-2,6.330201E-2],"categories":[],"categories_nodes":[],"categories_segments":[],"categories_sizes":[],"default_left":[0,0,0,0,0,0,0,0,0,0,0,0,0,0,0,0,0,0,0,0,0,0,0,0,0,0,0,0,0,0,0,0,0,0,0,0,0,0,0,0,0,0,0,0,0,0,0,0,0],"id":0,"left_children":[1,3,5,7,9,11,13,-1,15,-1,17,19,21,23,25,27,29,31,33,-1,35,37,39,41,43,45,47,-1,-1,-1,-1,-1,-1,-1,-1,-1,-1,-1,-1,-1,-1,-1,-1,-1,-1,-1,-1,-1,-1],"loss_changes":[1.350345E2,3.872254E1,6.366971E1,1.1189941E1,5.9176607E0,2.7379421E1,2.0767136E1,0E0,6.422577E0,0E0,5.353979E0,2.3403244E0,1.1554082E1,1.9761337E0,1.7964066E1,8.394127E-1,2.2587204E0,4.9263382E-1,2.9618201E0,0E0,1.4771786E0,2.6225529E0,7.2011185E0,4.7229034E-1,1.1220765E-1,2.613927E0,4.554184E0,0E0,0E0,0E0,0E0,0E0,0E0,0E0,0E0,0E0,0E0,0E0,0E0,0E0,0E0,0E0,0E0,0E0,0E0,0E0,0E0,0E0,0E0],"parents":[2147483647,0,0,1,1,2,2,3,3,4,4,5,5,6,6,8,8,10,10,11,11,12,12,13,13,14,14,15,15,16,16,17,17,18,18,20,20,21,21,22,22,23,23,24,24,25,25,26,26],"right_children":[2,4,6,8,10,12,14,-1,16,-1,18,20,22,24,26,28,30,32,34,-1,36,38,40,42,44,46,48,-1,-1,-1,-1,-1,-1,-1,-1,-1,-1,-1,-1,-1,-1,-1,-1,-1,-1,-1,-1,-1,-1],"split_conditions":[4.48E0,4.2989798E0,4.250308E0,2.9E1,3.5E1,2.8E0,2.8E0,-1.0986181E-1,2.8E0,-5.2384604E-2,2.8E0,2.8E1,5.7E1,1.35E0,5.4E1,1.35E0,1.6992197E0,2.03E0,6.687687E0,-9.326602E-2,1.35E0,3.2E1,1.35E0,6.695898E0,5.9078264E0,2.9E1,1.35E0,-8.097133E-2,-4.6361808E-2,-5.0869327E-2,-3.1310365E-2,-3.3422608E-2,1.4839768E-3,-6.518036E-3,1.5649246E-2,-3.740955E-2,-1.4571029E-2,-8.9688025E-2,-2.3110032E-2,3.9925477E-3,2.9793153E-2,-7.180436E-3,6.171167E-3,1.2473297E-2,2.8056642E-2,-6.127403E-2,3.5097005E-4,4.2362504E-2,6.330201E-2],"split_indices":[2,12,12,1,1,7,7,0,7,0,7,1,1,6,1,6,12,2,12,0,6,1,6,12,12,1,6,0,0,0,0,0,0,0,0,0,0,0,0,0,0,0,0,0,0,0,0,0,0],"split_type":[0,0,0,0,0,0,0,0,0,0,0,0,0,0,0,0,0,0,0,0,0,0,0,0,0,0,0,0,0,0,0,0,0,0,0,0,0,0,0,0,0,0,0,0,0,0,0,0,0],"sum_hessian":[5.72E2,1.88E2,3.84E2,1.07E2,8.1E1,1.93E2,1.91E2,8E0,9.9E1,6E0,7.5E1,4.8E1,1.45E2,3.8E1,1.53E2,2.4E1,7.5E1,1.4E1,6.1E1,1E0,4.7E1,7E0,1.38E2,2.8E1,1E1,6E0,1.47E2,1.6E1,8E0,3.3E1,4.2E1,1.3E1,1E0,3.7E1,2.4E1,3.6E1,1.1E1,2E0,5E0,1.02E2,3.6E1,1.9E1,9E0,5E0,5E0,3E0,3E0,1.03E2,4.4E1],"tree_param":{"num_deleted":"0","num_feature":"17","num_nodes":"49","size_leaf_vector":"1"}},{"base_weights":[-1.0808527E-2,-6.850903E-1,3.308324E-1,-1.1002806E0,-1.9689152E-1,-5.7256334E-2,7.254533E-1,-1.1263505E-1,-9.6597755E-1,-6.9270414E-1,-3.358609E-2,-6.7166626E-1,1.422921E-1,5.861424E-2,8.732567E-1,-1.3847777E0,-8.1080604E-1,-7.28446E-1,1.4468789E-3,-2.884829E-1,1.8777293E-1,-9.7097695E-1,-4.6969095E-1,-9.796768E-1,2.1495946E-1,-4.6919998E-2,3.6870426E-1,-3.4483182E-1,9.3402004E-1,-7.6513864E-2,-4.5124695E-2,-6.0684986E-2,-3.5835695E-2,-4.258677E-2,-2.3471147E-2,-1.6998421E-2,7.845396E-3,3.836047E-3,2.9037315E-2,-9.0934366E-2,-4.0706504E-2,-2.7279815E-2,-7.117261E-3,-8.6698435E-2,-2.5822753E-2,3.1848182E-3,2.9671162E-2,-9.410669E-3,4.8862407E-3,4.422152E-3,1.9634077E-2,-5.264556E-2,3.33399E-3,4.056351E-2,6.142962E-2],"categories":[],"categories_nodes":[],"categories_segments":[],"categories_sizes":[],"default_left":[0,0,0,0,0,0,0,0,0,0,0,0,0,0,0,0,0,0,0,0,0,0,0,0,0,0,0,0,0,0,0,0,0,0,0,0,0,0,0,0,0,0,0,0,0,0,0,0,0,0,0,0,0,0,0],"id":1,"left_children":[1,3,5,7,9,11,13,-1,15,17,19,21,23,25,27,29,31,33,-1,35,37,39,41,43,45,47,49,51,53,-1,-1,-1,-1,-1,-1,-1,-1,-1,-1,-1,-1,-1,-1,-1,-1,-1,-1,-1,-1,-1,-1,-1,-1,-1,-1],"loss_changes":[1.3084204E2,3.849819E1,5.777831E1,1.3765617E1,7.182966E0,2.351304E1,1.837973E1,0E0,4.985878E0,5.8852196E-1,3.8909812E0,2.38525E0,1.2032516E1,1.1626786E0,1.1646408E1,3.0306625E-1,1.8216705E0,2.708063E-1,0E0,7.8714156E-1,1.5701423E0,9.1264534E-1,6.677561E-1,2.2491226E0,7.8051224E0,5.702017E-1,2.5749207E-2,2.4012709E0,4.28244E0,0E0,0E0,0E0,0E0,0E0,0E0,0E0,0E0,0E0,0E0,0E0,0E0,0E0,0E0,0E0,0E0,0E0,0E0,0E0,0E0,0E0,0E0,0E0,0E0,0E0,0E0],"parents":[2147483647,0,0,1,1,2,2,3,3,4,4,5,5,6,6,8,8,9,9,10,10,11,11,12,12,13,13,14,14,15,15,16,16,17,17,19,19,20,20,21,21,22,22,23,23,24,24,25,25,26,26,27,27,28,28],"right_children":[2,4,6,8,10,12,14,-1,16,18,20,22,24,26,28,30,32,34,-1,36,38,40,42,44,46,48,50,52,54,-1,-1,-1,-1,-1,-1,-1,-1,-1,-1,-1,-1,-1,-1,-1,-1,-1,-1,-1,-1,-1,-1,-1,-1,-1,-1],"split_conditions":[4.48E0,3.9337945E0,4.250308E0,2.9E1,2.8E0,2.8E0,2.8E0,-1.1263505E-1,2.8E0,4.47E0,6.038053E0,1.757915E0,5.7E1,1.35E0,1.356561E1,1.35E0,1.9054962E1,1.35E0,1.4468789E-3,1.35E0,1.35E0,6.7442474E0,1.35E0,6.7442474E0,1.35E0,6.488996E0,5.01101E0,5.1813474E0,1.35E0,-7.6513864E-2,-4.5124695E-2,-6.0684986E-2,-3.5835695E-2,-4.258677E-2,-2.3471147E-2,-1.6998421E-2,7.845396E-3,3.836047E-3,2.9037315E-2,-9.0934366E-2,-4.0706504E-2,-2.7279815E-2,-7.117261E-3,-8.6698435E-2,-2.5822753E-2,3.1848182E-3,2.9671162E-2,-9.410669E-3,4.8862407E-3,4.422152E-3,1.9634077E-2,-5.264556E-2,3.33399E-3,4.056351E-2,6.142962E-2],"split_indices":[2,12,12,1,7,7,7,0,7,2,12,12,1,6,0,6,0,6,0,6,6,0,6,0,6,12,12,0,6,0,0,0,0,0,0,0,0,0,0,0,0,0,0,0,0,0,0,0,0,0,0,0,0,0,0],"split_type":[0,0,0,0,0,0,0,0,0,0,0,0,0,0,0,0,0,0,0,0,0,0,0,0,0,0,0,0,0,0,0,0,0,0,0,0,0,0,0,0,0,0,0,0,0,0,0,0,0,0,0,0,0,0,0],"sum_hessian":[5.66E2,1.9E2,3.76E2,1.02E2,8.8E1,1.9E2,1.86E2,9E0,9.3E1,2.1E1,6.7E1,4.6E1,1.44E2,3.4E1,1.52E2,2.3E1,7E1,2E1,1E0,3.1E1,3.6E1,1.7E1,2.9E1,8E0,1.36E2,2.6E1,8E0,7E0,1.45E2,1.6E1,7E0,1.1E1,5.9E1,1.2E1,8E0,2.8E1,3E0,2.9E1,7E0,1E0,1.6E1,2.3E1,6E0,2E0,6E0,9.8E1,3.8E1,1.3E1,1.3E1,1E0,7E0,2E0,5E0,1.05E2,4E1],"tree_param":{"num_deleted":"0","num_feature":"17","num_nodes":"55","size_leaf_vector":"1"}},{"base_weights":[-8.727874E-3,-6.4199936E-1,3.1548995E-1,-1.033299E0,-1.4313464E-1,-5.317009E-2,6.526066E-1,-2.113893E0,-9.137107E-1,-9.3171936E-1,-6.146612E-2,-6.4422256E-1,1.4135934E-1,6.447987E-2,7.97369E-1,-1.104175E-1,-3.1594515E-2,-1.3016331E0,-7.6506627E-1,-4.952592E-2,-1.3003158E-2,-5.62694E-1,6.480126E-2,-8.866101E-2,-5.782631E-1,-1.4122905E-2,5.3242046E-1,-6.335395E-2,4.0725577E-1,-6.666432E-1,8.5954475E-1,-7.279882E-2,-4.2416036E-2,-6.0264613E-2,-3.387241E-2,1.4107109E-3,-3.0198444E-2,-5.6101005E-3,1.7270721E-2,-3.3600606E-2,-1.1796202E-2,-4.100906E-2,1.8738935E-3,-9.0427045E-3,2.7797509E-2,-1.197409E-2,1.8342029E-3,1.12622585E-2,2.6069522E-2,-5.7701785E-2,-6.294966E-4,3.6476184E-2,5.7624724E-2],"categories":[],"categories_nodes":[],"categories_segments":[],"categories_sizes":[],"default_left":[0,0,0,0,0,0,0,0,0,0,0,0,0,0,0,0,0,0,0,0,0,0,0,0,0,0,0,0,0,0,0,0,0,0,0,0,0,0,0,0,0,0,0,0,0,0,0,0,0,0,0,0,0],"id":2,"left_children":[1,3,5,7,9,11,13,15,17,19,21,23,25,27,29,-1,-1,31,33,-1,-1,35,37,-1,39,41,43,45,47,49,51,-1,-1,-1,-1,-1,-1,-1,-1,-1,-1,-1,-1,-1,-1,-1,-1,-1,-1,-1,-1,-1,-1],"loss_changes":[1.1702843E2,3.752678E1,4.6888794E1,1.2024963E1,5.481349E0,2.0901924E1,1.6720901E1,4.421234E-3,4.712761E0,5.834484E-2,5.0362735E0,2.325676E0,8.337539E0,1.7785356E0,1.4955132E1,0E0,0E0,5.839691E-1,2.0377884E0,0E0,0E0,4.0727472E-1,3.2176008E0,0E0,1.2535906E0,4.1484685E0,7.5508785E-1,5.3736955E-1,1.11070156E-1,2.2169354E0,4.9488525E0,0E0,0E0,0E0,0E0,0E0,0E0,0E0,0E0,0E0,0E0,0E0,0E0,0E0,0E0,0E0,0E0,0E0,0E0,0E0,0E0,0E0,0E0],"parents":[2147483647,0,0,1,1,2,2,3,3,4,4,5,5,6,6,7,7,8,8,9,9,10,10,11,11,12,12,13,13,14,14,17,17,18,18,21,21,22,22,24,24,25,25,26,26,27,27,28,28,29,29,30,30],"right_children":[2,4,6,8,10,12,14,16,18,20,22,24,26,28,30,-1,-1,32,34,-1,-1,36,38,-1,40,42,44,46,48,50,52,-1,-1,-1,-1,-1,-1,-1,-1,-1,-1,-1,-1,-1,-1,-1,-1,-1,-1,-1,-1,-1,-1],"split_conditions":[4.48E0,7.8E-1,7.4E-1,2.9E1,3.7E1,2.8E0,2.8E0,6.6E-1,2.8E0,1.6160172E1,2.8E0,6.7442474E0,1.35E0,1.35E0,1.08913965E1,-1.104175E-1,-3.1594515E-2,1.35E0,1.9054962E1,-4.952592E-2,-1.3003158E-2,1.4037165E1,1.21E0,-8.866101E-2,1.35E0,5.7E1,8.536367E0,1.01E0,1.07E0,6.7442474E0,1.35E0,-7.279882E-2,-4.2416036E-2,-6.0264613E-2,-3.387241E-2,1.4107109E-3,-3.0198444E-2,-5.6101005E-3,1.7270721E-2,-3.3600606E-2,-1.1796202E-2,-4.100906E-2,1.8738935E-3,-9.0427045E-3,2.7797509E-2,-1.197409E-2,1.8342029E-3,1.12622585E-2,2.6069522E-2,-5.7701785E-2,-6.294966E-4,3.6476184E-2,5.7624724E-2],"split_indices":[2,13,13,1,1,7,7,13,7,0,7,0,6,6,0,0,0,6,0,0,0,0,13,0,6,1,0,13,13,0,6,0,0,0,0,0,0,0,0,0,0,0,0,0,0,0,0,0,0,0,0,0,0],"split_type":[0,0,0,0,0,0,0,0,0,0,0,0,0,0,0,0,0,0,0,0,0,0,0,0,0,0,0,0,0,0,0,0,0,0,0,0,0,0,0,0,0,0,0,0,0,0,0,0,0,0,0,0,0],"sum_hessian":[5.68E2,1.92E2,3.76E2,1.07E2,8.5E1,1.8E2,1.96E2,9E0,9.8E1,7E0,7.8E1,4.4E1,1.36E2,3.9E1,1.57E2,8E0,1E0,2.5E1,7.3E1,6E0,1E0,1.5E1,6.3E1,1E0,4.3E1,9.8E1,3.8E1,2.9E1,1E1,6E0,1.51E2,1.7E1,8E0,1E1,6.3E1,1E0,1.4E1,3.9E1,2.4E1,3.3E1,1E1,5E0,9.3E1,1E0,3.7E1,1E1,1.9E1,5E0,5E0,3E0,3E0,1.07E2,4.4E1],"tree_param":{"num_deleted":"0","num_feature":"17","num_nodes":"53","size_leaf_vector":"1"}},{"base_weights":[-7.853151E-3,-6.1500263E-1,2.8957757E-1,-9.643039E-1,-1.5983976E-1,-1.2658271E-1,5.899838E-1,-9.2340164E-2,-8.4640294E-1,-3.2565214E-2,-3.6437795E-2,-7.0771515E-1,6.969044E-2,-2.0879531E-2,7.5209606E-1,-1.2634865E0,-6.940584E-1,-4.091038E-2,5.1003896E-2,-8.644448E-2,-6.4064044E-1,-5.3818535E-2,4.3032026E-1,-2.31633E-1,1.4545818E-1,-4.2600265E-1,8.1621754E-1,-6.938888E-2,-4.1294795E-2,-3.766096E-2,-9.154759E-3,-6.220375E-3,1.4474672E-2,-3.5768114E-2,-1.4773904E-2,-3.9300356E-2,-1.9264033E-4,-8.816636E-3,2.2778893E-2,-1.39021445E-2,2.3361146E-3,1.5411902E-3,1.920196E-2,-5.5537976E-2,1.3072252E-3,3.0274307E-2,4.8094463E-2],"categories":[],"categories_nodes":[],"categories_segments":[],"categories_sizes":[],"default_left":[0,0,0,0,0,0,0,0,0,0,0,0,0,0,0,0,0,0,0,0,0,0,0,0,0,0,0,0,0,0,0,0,0,0,0,0,0,0,0,0,0,0,0,0,0,0,0],"id":3,"left_children":[1,3,5,7,9,11,13,-1,15,-1,17,19,21,23,25,27,29,-1,31,-1,33,35,37,39,41,43,45,-1,-1,-1,-1,-1,-1,-1,-1,-1,-1,-1,-1,-1,-1,-1,-1,-1,-1,-1,-1],"loss_changes":[1.0600085E2,3.0530746E1,4.9331432E1,9.778038E0,5.131322E0,1.8983397E1,2.2693222E1,0E0,5.350029E0,0E0,4.7585216E0,1.7691956E0,5.590787E0,1.7514489E0,1.4020706E1,2.1355438E-1,2.0990372E0,0E0,2.6715436E0,0E0,8.460636E-1,3.4358988E0,5.706558E-1,2.971965E-1,7.539508E-1,3.1251488E0,4.697571E0,0E0,0E0,0E0,0E0,0E0,0E0,0E0,0E0,0E0,0E0,0E0,0E0,0E0,0E0,0E0,0E0,0E0,0E0,0E0,0E0],"parents":[2147483647,0,0,1,1,2,2,3,3,4,4,5,5,6,6,8,8,10,10,11,11,12,12,13,13,14,14,15,15,16,16,18,18,20,20,21,21,22,22,23,23,24,24,25,25,26,26],"right_children":[2,4,6,8,10,12,14,-1,16,-1,18,20,22,24,26,28,30,-1,32,-1,34,36,38,40,42,44,46,-1,-1,-1,-1,-1,-1,-1,-1,-1,-1,-1,-1,-1,-1,-1,-1,-1,-1,-1,-1],"split_conditions":[4.48E0,7.6E-1,3.6647832E0,3.5E1,2.8E0,2.8E0,2.8E0,-9.2340164E-2,2.8E0,-3.2565214E-2,1.7458532E1,6.7442474E0,1.35E0,5.576628E0,1.356561E1,1.35E0,1.35E0,-4.091038E-2,6.6590147E0,-8.644448E-2,1.35E0,5.7E1,8.536367E0,1.35E0,1.35E0,6.7442474E0,5.9078264E0,-6.938888E-2,-4.1294795E-2,-3.766096E-2,-9.154759E-3,-6.220375E-3,1.4474672E-2,-3.5768114E-2,-1.4773904E-2,-3.9300356E-2,-1.9264033E-4,-8.816636E-3,2.2778893E-2,-1.39021445E-2,2.3361146E-3,1.5411902E-3,1.920196E-2,-5.5537976E-2,1.3072252E-3,3.0274307E-2,4.8094463E-2],"split_indices":[2,13,12,1,7,7,7,0,7,0,0,0,6,12,0,6,6,0,12,0,6,1,0,6,6,0,12,0,0,0,0,0,0,0,0,0,0,0,0,0,0,0,0,0,0,0,0],"split_type":[0,0,0,0,0,0,0,0,0,0,0,0,0,0,0,0,0,0,0,0,0,0,0,0,0,0,0,0,0,0,0,0,0,0,0,0,0,0,0,0,0,0,0,0,0,0,0],"sum_hessian":[5.85E2,1.92E2,3.93E2,1.08E2,8.4E1,1.65E2,2.28E2,1.1E1,9.7E1,1.6E1,6.8E1,4.1E1,1.24E2,4.8E1,1.8E2,2.4E1,7.3E1,6E0,6.2E1,1E0,4E1,9.3E1,3.1E1,2.1E1,2.7E1,9E0,1.71E2,1.7E1,7E0,6.5E1,8E0,3.6E1,2.6E1,3.2E1,8E0,5E0,8.8E1,1E0,3E1,1.8E1,3E0,1.9E1,8E0,3E0,6E0,7.2E1,9.9E1],"tree_param":{"num_deleted":"0","num_feature":"17","num_nodes":"47","size_leaf_vector":"1"}},{"base_weights":[1.16110255E-4,-5.694006E-1,2.8930047E-1,-9.389453E-1,-1.8255657E-1,-1.0596914E-1,5.666301E-1,-9.304879E-2,-8.1582E-1,-4.4169255E-2,-1.0963508E-1,-5.8762693E-1,4.369724E-2,1.1418789E-2,7.076705E-1,-1.235137E0,-6.619948E-1,-5.316827E-1,1.2516178E-2,-6.7159754E-1,-2.8534943E-1,-9.8966676E-1,1.14587024E-1,-2.1830364E-1,1.7509842E-1,-6.751317E-1,7.589387E-1,-6.7839675E-2,-3.8161866E-2,-3.620086E-2,-8.747879E-3,2.1895766E-3,-2.8213782E-2,-7.3449328E-3,1.5266942E-2,-3.9908625E-2,-2.3948463E-2,-1.6554559E-2,-3.4127475E-3,-8.11315E-2,-2.5412036E-2,-2.7247386E-3,1.6943244E-2,-1.3370453E-2,2.2485137E-3,2.4832098E-3,1.979568E-2,-5.3455293E-2,-5.6187273E-3,2.5651207E-2,4.4805273E-2],"categories":[],"categories_nodes":[],"categories_segments":[],"categories_sizes":[],"default_left":[0,0,0,0,0,0,0,0,0,0,0,0,0,0,0,0,0,0,0,0,0,0,0,0,0,0,0,0,0,0,0,0,0,0,0,0,0,0,0,0,0,0,0,0,0,0,0,0,0,0,0],"id":4,"left_children":[1,3,5,7,9,11,13,-1,15,-1,17,19,21,23,25,27,29,31,33,35,37,39,41,43,45,47,49,-1,-1,-1,-1,-1,-1,-1,-1,-1,-1,-1,-1,-1,-1,-1,-1,-1,-1,-1,-1,-1,-1,-1,-1],"loss_changes":[9.585271E1,2.7848E1,4.237336E1,9.834312E0,4.8603797E0,1.1559754E1,1.7767654E1,0E0,4.987484E0,0E0,4.594929E0,7.72892E-1,9.123761E0,1.8054659E0,1.3344177E1,2.8486633E-1,1.9274158E0,3.9983797E-1,3.3124728E0,3.247757E-1,7.6704144E-2,1.6131139E0,4.4173374E0,2.7058893E-1,7.558752E-1,1.4318426E0,5.4432526E0,0E0,0E0,0E0,0E0,0E0,0E0,0E0,0E0,0E0,0E0,0E0,0E0,0E0,0E0,0E0,0E0,0E0,0E0,0E0,0E0,0E0,0E0,0E0,0E0],"parents":[2147483647,0,0,1,1,2,2,3,3,4,4,5,5,6,6,8,8,10,10,11,11,12,12,13,13,14,14,15,15,16,16,17,17,18,18,19,19,20,20,21,21,22,22,23,23,24,24,25,25,26,26],"right_children":[2,4,6,8,10,12,14,-1,16,-1,18,20,22,24,26,28,30,32,34,36,38,40,42,44,46,48,50,-1,-1,-1,-1,-1,-1,-1,-1,-1,-1,-1,-1,-1,-1,-1,-1,-1,-1,-1,-1,-1,-1,-1,-1],"split_conditions":[4.48E0,3.9337945E0,3.6647832E0,3.7E1,4.5E1,2.8E0,2.8E0,-9.304879E-2,2.8E0,-4.4169255E-2,2.8E0,1.35E0,5.7E1,5.576628E0,1.1917894E1,1.35E0,1.35E0,1.4037165E1,6.687687E0,1.898242E0,1.898242E0,6.7442474E0,1.940858E0,1.35E0,1.35E0,6.7442474E0,1.01E0,-6.7839675E-2,-3.8161866E-2,-3.620086E-2,-8.747879E-3,2.1895766E-3,-2.8213782E-2,-7.3449328E-3,1.5266942E-2,-3.9908625E-2,-2.3948463E-2,-1.6554559E-2,-3.4127475E-3,-8.11315E-2,-2.5412036E-2,-2.7247386E-3,1.6943244E-2,-1.3370453E-2,2.2485137E-3,2.4832098E-3,1.979568E-2,-5.3455293E-2,-5.6187273E-3,2.5651207E-2,4.4805273E-2],"split_indices":[2,12,12,1,1,7,7,0,7,0,7,6,1,12,0,6,6,0,12,12,12,0,12,6,6,0,13,0,0,0,0,0,0,0,0,0,0,0,0,0,0,0,0,0,0,0,0,0,0,0,0],"split_type":[0,0,0,0,0,0,0,0,0,0,0,0,0,0,0,0,0,0,0,0,0,0,0,0,0,0,0,0,0,0,0,0,0,0,0,0,0,0,0,0,0,0,0,0,0,0,0,0,0,0,0],"sum_hessian":[5.8E2,1.95E2,3.85E2,9.9E1,9.6E1,1.59E2,2.26E2,1E1,8.9E1,8E0,8.8E1,3.7E1,1.22E2,4.6E1,1.8E2,2.2E1,6.7E1,1.9E1,6.9E1,2.8E1,9E0,7E0,1.15E2,1.9E1,2.7E1,6E0,1.74E2,1.6E1,6E0,5.9E1,8E0,1E0,1.8E1,4.5E1,2.4E1,1.5E1,1.3E1,7E0,2E0,2E0,5E0,6.6E1,4.9E1,1.6E1,3E0,1.8E1,9E0,3E0,3E0,6.4E1,1.1E2],"tree_param":{"num_deleted":"0","num_feature":"17","num_nodes":"51","size_leaf_vector":"1"}},{"base_weights":[5.100008E-4,-5.4613596E-1,2.579167E-1,-8.355331E-1,-1.4359134E-1,-2.0806523E-1,4.9795362E-1,-7.8632854E-2,-7.526364E-1,-8.763345E-1,-7.13613E-2,-1.05070665E-1,-1.6379373E-1,-1.0278846E0,5.317703E-1,-9.589283E-1,-5.8380854E-1,-1.2437177E-2,-4.6973787E-2,-2.5979176E-1,9.0588614E-2,-2.568686E-1,1.7884956E-1,-5.8488708E-2,-7.960916E-3,3.148588E-1,7.331504E-1,-5.0039228E-2,-2.2033205E-2,-3.2921582E-2,-1.9995399E-2,2.6801706E-3,-1.3545646E-2,7.23628E-4,1.7557904E-2,-1.6388124E-2,-5.885938E-3,-3.3940815E-3,1.561404E-2,1.027147E-2,2.8478557E-2,3.0481553E-2,5.2902874E-2],"categories":[],"categories_nodes":[],"categories_segments":[],"categories_sizes":[],"default_left":[0,0,0,0,0,0,0,0,0,0,0,0,0,0,0,0,0,0,0,0,0,0,0,0,0,0,0,0,0,0,0,0,0,0,0,0,0,0,0,0,0,0,0],"id":5,"left_children":[1,3,5,7,9,11,13,-1,15,17,19,-1,21,23,25,27,29,-1,-1,31,33,35,37,-1,-1,39,41,-1,-1,-1,-1,-1,-1,-1,-1,-1,-1,-1,-1,-1,-1,-1,-1],"loss_changes":[8.175284E1,2.1548145E1,4.4285492E1,5.415718E0,4.1186233E0,1.0971685E1,1.40138855E1,0E0,2.8881226E0,4.3699265E-2,2.2512238E0,0E0,4.287508E0,5.532794E-1,1.0951668E1,4.917717E-1,5.1891136E-1,0E0,0E0,1.3302255E-1,7.8825873E-1,9.972272E-1,9.7592604E-1,0E0,0E0,3.3671198E0,4.652443E0,0E0,0E0,0E0,0E0,0E0,0E0,0E0,0E0,0E0,0E0,0E0,0E0,0E0,0E0,0E0,0E0],"parents":[2147483647,0,0,1,1,2,2,3,3,4,4,5,5,6,6,8,8,9,9,10,10,12,12,13,13,14,14,15,15,16,16,19,19,20,20,21,21,22,22,25,25,26,26],"right_children":[2,4,6,8,10,12,14,-1,16,18,20,-1,22,24,26,28,30,-1,-1,32,34,36,38,-1,-1,40,42,-1,-1,-1,-1,-1,-1,-1,-1,-1,-1,-1,-1,-1,-1,-1,-1],"split_conditions":[4.48E0,4.2989798E0,2.9224358E0,3.5E1,3.5E1,6.7442474E0,8.536367E0,-7.8632854E-2,1.898242E0,1.98E0,6.0495954E0,-1.05070665E-1,1.35E0,6.7442474E0,5.9078264E0,1.35E0,6.25174E1,-1.2437177E-2,-4.6973787E-2,4.3196397E0,1.35E0,1.757915E0,1.2891415E0,-5.8488708E-2,-7.960916E-3,1.35E0,1.35E0,-5.0039228E-2,-2.2033205E-2,-3.2921582E-2,-1.9995399E-2,2.6801706E-3,-1.3545646E-2,7.23628E-4,1.7557904E-2,-1.6388124E-2,-5.885938E-3,-3.3940815E-3,1.561404E-2,1.027147E-2,2.8478557E-2,3.0481553E-2,5.2902874E-2],"split_indices":[2,12,12,1,1,0,0,0,12,2,12,0,6,0,12,6,0,0,0,12,6,12,12,0,0,6,6,0,0,0,0,0,0,0,0,0,0,0,0,0,0,0,0],"split_type":[0,0,0,0,0,0,0,0,0,0,0,0,0,0,0,0,0,0,0,0,0,0,0,0,0,0,0,0,0,0,0,0,0,0,0,0,0,0,0,0,0,0,0],"sum_hessian":[5.79E2,1.85E2,3.94E2,1.07E2,7.8E1,1.34E2,2.6E2,9E0,9.8E1,6E0,7.2E1,2E0,1.32E2,5E0,2.55E2,4.2E1,5.6E1,1E0,5E0,3.3E1,3.9E1,1.04E2,2.8E1,4E0,1E0,1.24E2,1.31E2,3.8E1,4E0,3.8E1,1.8E1,1E0,3.2E1,3.1E1,8E0,6.8E1,3.6E1,1E1,1.8E1,8.8E1,3.6E1,9.7E1,3.4E1],"tree_param":{"num_deleted":"0","num_feature":"17","num_nodes":"43","size_leaf_vector":"1"}},{"base_weights":[5.093143E-3,-4.077909E-1,3.266268E-1,-8.82486E-1,-1.4225033E-1,-1.7059056E-1,5.283555E-1,-8.716466E-2,-7.797508E-1,-6.496197E-1,4.0404174E-2,-3.4909388E-1,4.8301872E-2,-3.5408195E-2,6.620648E-1,-5.9319615E-2,-6.2537205E-1,-8.06589E-2,-5.8969563E-1,-9.264928E-1,1.0673842E-1,-6.329136E-1,-2.4102965E-1,-7.020825E-1,1.2033201E-1,-2.1935217E-1,1.0215802E-1,-4.569632E-1,7.1376365E-1,-5.0311264E-2,-2.6726378E-2,-3.265744E-2,-1.3870581E-2,-7.5701125E-2,-2.3915624E-2,1.763837E-4,2.0124583E-2,-3.285218E-2,-7.980597E-3,-3.226081E-2,-8.909868E-3,-4.751283E-2,-1.5130281E-2,-1.4084348E-2,1.0569277E-2,-1.3161011E-2,1.0962546E-3,3.4483313E-4,1.6377082E-2,-4.9257386E-2,-1.4339845E-3,2.9624745E-2,4.6671107E-2],"categories":[],"categories_nodes":[],"categories_segments":[],"categories_sizes":[],"default_left":[0,0,0,0,0,0,0,0,0,0,0,0,0,0,0,0,0,0,0,0,0,0,0,0,0,0,0,0,0,0,0,0,0,0,0,0,0,0,0,0,0,0,0,0,0,0,0,0,0,0,0,0,0],"id":6,"left_children":[1,3,5,7,9,11,13,-1,15,17,19,21,23,25,27,-1,29,-1,31,33,35,37,39,41,43,45,47,49,51,-1,-1,-1,-1,-1,-1,-1,-1,-1,-1,-1,-1,-1,-1,-1,-1,-1,-1,-1,-1,-1,-1,-1,-1],"loss_changes":[7.792828E1,3.2269524E1,3.319012E1,6.776703E0,1.5410017E1,3.767872E0,1.7737846E1,0E0,4.5313187E0,1.5892906E0,7.987912E0,1.4729996E0,2.4626958E0,1.1864146E0,1.13181305E1,0E0,1.6418457E0,0E0,6.708708E-1,1.3823786E0,3.5394695E0,5.50189E-2,9.008627E-1,1.0900617E-1,1.5603595E0,2.1745837E-1,5.774405E-1,2.0076609E0,4.2950134E0,0E0,0E0,0E0,0E0,0E0,0E0,0E0,0E0,0E0,0E0,0E0,0E0,0E0,0E0,0E0,0E0,0E0,0E0,0E0,0E0,0E0,0E0,0E0,0E0],"parents":[2147483647,0,0,1,1,2,2,3,3,4,4,5,5,6,6,8,8,9,9,10,10,11,11,12,12,13,13,14,14,16,16,18,18,19,19,20,20,21,21,22,22,23,23,24,24,25,25,26,26,27,27,28,28],"right_children":[2,4,6,8,10,12,14,-1,16,18,20,22,24,26,28,-1,30,-1,32,34,36,38,40,42,44,46,48,50,52,-1,-1,-1,-1,-1,-1,-1,-1,-1,-1,-1,-1,-1,-1,-1,-1,-1,-1,-1,-1,-1,-1,-1,-1],"split_conditions":[3.6647832E0,4.48E0,4.48E0,2.9E1,2.8E0,6.0495954E0,2.8E0,-8.716466E-2,2.8E0,6.7442474E0,5.7E1,2.8E0,3.7E1,5.576628E0,1.356561E1,-5.9319615E-2,1.9054962E1,-8.06589E-2,1.35E0,6.7442474E0,1.35E0,5.801999E0,1.6160172E1,7.785369E0,2.8E0,1.35E0,1.35E0,6.7442474E0,6.7767286E0,-5.0311264E-2,-2.6726378E-2,-3.265744E-2,-1.3870581E-2,-7.5701125E-2,-2.3915624E-2,1.763837E-4,2.0124583E-2,-3.285218E-2,-7.980597E-3,-3.226081E-2,-8.909868E-3,-4.751283E-2,-1.5130281E-2,-1.4084348E-2,1.0569277E-2,-1.3161011E-2,1.0962546E-3,3.4483313E-4,1.6377082E-2,-4.9257386E-2,-1.4339845E-3,2.9624745E-2,4.6671107E-2],"split_indices":[12,2,2,1,7,12,7,0,7,0,1,7,1,12,0,0,0,0,6,0,6,12,0,0,7,6,6,0,12,0,0,0,0,0,0,0,0,0,0,0,0,0,0,0,0,0,0,0,0,0,0,0,0],"split_type":[0,0,0,0,0,0,0,0,0,0,0,0,0,0,0,0,0,0,0,0,0,0,0,0,0,0,0,0,0,0,0,0,0,0,0,0,0,0,0,0,0,0,0,0,0,0,0,0,0,0,0,0,0],"sum_hessian":[5.85E2,2.56E2,3.29E2,9.1E1,1.65E2,9.5E1,2.34E2,8E0,8.3E1,4.3E1,1.22E2,5.2E1,4.3E1,4.5E1,1.89E2,2.1E1,6.2E1,1E0,4.2E1,7E0,1.15E2,1.3E1,3.9E1,3E0,4E1,1.9E1,2.6E1,8E0,1.81E2,1E1,5.2E1,3.4E1,8E0,2E0,5E0,8.6E1,2.9E1,1.2E1,1E0,4E0,3.5E1,1E0,2E0,7E0,3.3E1,1.6E1,3E0,1.9E1,7E0,3E0,5E0,1.19E2,6.2E1],"tree_param":{"num_deleted":"0","num_feature":"17","num_nodes":"53","size_leaf_vector":"1"}},{"base_weights":[1.0770537E-2,-5.030526E-1,2.4958086E-1,-8.4834725E-1,-1.8785891E-1,-1.9283524E-1,4.6736866E-1,-8.172363E-2,-7.602318E-1,-4.023734E-2,-1.1643489E-1,-6.8142205E-1,-9.516062E-3,-3.8597576E-2,5.95823E-1,-5.7135608E-2,-6.160954E-1,-4.9308595E-1,-7.1569374E-3,-7.864242E-2,-6.110142E-1,-6.980105E-2,1.9468581E-2,-2.1903948E-1,1.08165175E-1,-6.847862E-1,6.3625026E-1,-3.273537E-2,-1.1235108E-2,2.4688484E-3,-2.6211772E-2,-7.053694E-3,1.2769763E-2,-3.3779424E-2,-1.54313715E-2,-2.7001214E-3,1.6003087E-2,-1.3135287E-2,4.0833952E-4,2.2265478E-4,1.6275762E-2,-5.1289786E-2,-8.629006E-3,2.1512749E-2,3.8812246E-2],"categories":[],"categories_nodes":[],"categories_segments":[],"categories_sizes":[],"default_left":[0,0,0,0,0,0,0,0,0,0,0,0,0,0,0,0,0,0,0,0,0,0,0,0,0,0,0,0,0,0,0,0,0,0,0,0,0,0,0,0,0,0,0,0,0],"id":7,"left_children":[1,3,5,7,9,11,13,-1,15,-1,17,19,21,23,25,-1,27,29,31,-1,33,-1,35,37,39,41,43,-1,-1,-1,-1,-1,-1,-1,-1,-1,-1,-1,-1,-1,-1,-1,-1,-1,-1],"loss_changes":[7.1540596E1,1.9975052E1,3.8438553E1,4.8531647E0,4.2242393E0,1.1816402E1,1.7376278E1,0E0,3.7614555E0,0E0,3.6596801E0,1.2984505E0,3.9253514E0,1.4802105E0,1.1463036E1,0E0,7.7474785E-1,3.6383343E-1,2.4972427E0,0E0,4.7491932E-1,0E0,2.1374326E0,2.5017667E-1,6.9734704E-1,1.0456378E0,5.6355286E0,0E0,0E0,0E0,0E0,0E0,0E0,0E0,0E0,0E0,0E0,0E0,0E0,0E0,0E0,0E0,0E0,0E0,0E0],"parents":[2147483647,0,0,1,1,2,2,3,3,4,4,5,5,6,6,8,8,10,10,11,11,12,12,13,13,14,14,16,16,17,17,18,18,20,20,22,22,23,23,24,24,25,25,26,26],"right_children":[2,4,6,8,10,12,14,-1,16,-1,18,20,22,24,26,-1,28,30,32,-1,34,-1,36,38,40,42,44,-1,-1,-1,-1,-1,-1,-1,-1,-1,-1,-1,-1,-1,-1,-1,-1,-1,-1],"split_conditions":[4.48E0,3.6647832E0,2.9224358E0,2.9E1,4.5E1,2.8E0,2.8E0,-8.172363E-2,2.8E0,-4.023734E-2,2.8E0,6.7442474E0,5.1813474E0,5.576628E0,1.1917894E1,-5.7135608E-2,1.35E0,1.4037165E1,6.6590147E0,-7.864242E-2,1.35E0,-6.980105E-2,1.35E0,1.35E0,1.35E0,6.7442474E0,5.4591455E0,-3.273537E-2,-1.1235108E-2,2.4688484E-3,-2.6211772E-2,-7.053694E-3,1.2769763E-2,-3.3779424E-2,-1.54313715E-2,-2.7001214E-3,1.6003087E-2,-1.3135287E-2,4.0833952E-4,2.2265478E-4,1.6275762E-2,-5.1289786E-2,-8.629006E-3,2.1512749E-2,3.8812246E-2],"split_indices":[2,12,12,1,1,7,7,0,7,0,7,0,0,12,0,0,6,0,12,0,6,0,6,6,6,0,12,0,0,0,0,0,0,0,0,0,0,0,0,0,0,0,0,0,0],"split_type":[0,0,0,0,0,0,0,0,0,0,0,0,0,0,0,0,0,0,0,0,0,0,0,0,0,0,0,0,0,0,0,0,0,0,0,0,0,0,0,0,0,0,0,0,0],"sum_hessian":[5.81E2,1.84E2,3.97E2,8.7E1,9.7E1,1.31E2,2.66E2,7E0,8E1,9E0,8.8E1,3.5E1,9.6E1,5.4E1,2.12E2,2E1,6E1,1.9E1,6.9E1,1E0,3.4E1,1E0,9.5E1,2.4E1,3E1,6E0,2.06E2,5.4E1,6E0,1E0,1.8E1,4.6E1,2.3E1,2.7E1,7E0,7.7E1,1.8E1,2E1,4E0,2.1E1,9E0,3E0,3E0,8.5E1,1.21E2],"tree_param":{"num_deleted":"0","num_feature":"17","num_nodes":"45","size_leaf_vector":"1"}},{"base_weights":[1.8199072E-3,-4.8112044E-1,2.3702966E-1,-7.9104924E-1,-1.6938958E-1,-1.7236161E-1,4.5046276E-1,-9.620069E-2,-7.0578146E-1,-5.233579E-1,-6.801991E-2,-6.446418E-1,-1.6345685E-2,-3.619369E-2,5.640341E-1,-1.0347153E0,-5.889825E-1,-5.5434006E-1,2.4071217E-3,-6.573409E-1,-7.247932E-3,-7.667636E-2,-5.689414E-1,-8.625293E-1,3.6711056E-2,-1.3944092E-1,2.3188445E-1,-9.52645E-1,5.9878343E-1,-5.6797188E-2,-3.2775972E-2,-3.608442E-2,-1.928151E-2,-3.3944625E-2,-1.4132497E-2,-3.528322E-2,-9.184993E-3,-6.054864E-3,1.2074005E-2,-3.0648291E-2,-1.3800402E-2,-6.8056025E-2,-2.4529347E-2,-2.0593998E-3,1.5030366E-2,-9.430631E-3,4.5607532E-3,4.839744E-3,1.979357E-2,-5.6066174E-2,-6.9482806E-3,2.3228906E-2,3.988197E-2],"categories":[],"categories_nodes":[],"categories_segments":[],"categories_sizes":[],"default_left":[0,0,0,0,0,0,0,0,0,0,0,0,0,0,0,0,0,0,0,0,0,0,0,0,0,0,0,0,0,0,0,0,0,0,0,0,0,0,0,0,0,0,0,0,0,0,0,0,0,0,0,0,0],"id":8,"left_children":[1,3,5,7,9,11,13,-1,15,17,19,21,23,25,27,29,31,33,-1,35,37,-1,39,41,43,45,47,49,51,-1,-1,-1,-1,-1,-1,-1,-1,-1,-1,-1,-1,-1,-1,-1,-1,-1,-1,-1,-1,-1,-1,-1,-1],"loss_changes":[6.5202415E1,1.802951E1,3.3805416E1,7.7229767E0,3.3731582E0,9.789331E0,1.4059048E1,0E0,2.8098679E0,3.9851952E-1,2.6813006E0,1.3480501E0,4.566135E0,1.3885721E0,1.1427368E1,9.9845886E-2,1.5567474E0,4.849043E-1,0E0,3.0585766E-2,1.9831516E0,0E0,2.4349499E-1,4.4493437E-1,1.9858793E0,4.255073E-1,2.7182257E-1,5.3042555E-1,5.020317E0,0E0,0E0,0E0,0E0,0E0,0E0,0E0,0E0,0E0,0E0,0E0,0E0,0E0,0E0,0E0,0E0,0E0,0E0,0E0,0E0,0E0,0E0,0E0,0E0],"parents":[2147483647,0,0,1,1,2,2,3,3,4,4,5,5,6,6,8,8,9,9,10,10,11,11,12,12,13,13,14,14,15,15,16,16,17,17,19,19,20,20,22,22,23,23,24,24,25,25,26,26,27,27,28,28],"right_children":[2,4,6,8,10,12,14,-1,16,18,20,22,24,26,28,30,32,34,-1,36,38,-1,40,42,44,46,48,50,52,-1,-1,-1,-1,-1,-1,-1,-1,-1,-1,-1,-1,-1,-1,-1,-1,-1,-1,-1,-1,-1,-1,-1,-1],"split_conditions":[4.48E0,3.8463175E0,2.9224358E0,1E0,2.8E0,2.8E0,2.8E0,-9.620069E-2,2.8E0,4.47E0,3.7E1,2.8E1,5.7E1,7.1162868E0,3.8E1,1.35E0,1.9768445E0,1.35E0,2.4071217E-3,3.5E1,6.687687E0,-7.667636E-2,1.35E0,1.6E1,1.35E0,1.35E0,1.35E0,3.2E1,6.38419E0,-5.6797188E-2,-3.2775972E-2,-3.608442E-2,-1.928151E-2,-3.3944625E-2,-1.4132497E-2,-3.528322E-2,-9.184993E-3,-6.054864E-3,1.2074005E-2,-3.0648291E-2,-1.3800402E-2,-6.8056025E-2,-2.4529347E-2,-2.0593998E-3,1.5030366E-2,-9.430631E-3,4.5607532E-3,4.839744E-3,1.979357E-2,-5.6066174E-2,-6.9482806E-3,2.3228906E-2,3.988197E-2],"split_indices":[2,12,12,3,7,7,7,0,7,2,1,1,1,12,1,6,12,6,0,1,12,0,6,1,6,6,6,1,12,0,0,0,0,0,0,0,0,0,0,0,0,0,0,0,0,0,0,0,0,0,0,0,0],"split_type":[0,0,0,0,0,0,0,0,0,0,0,0,0,0,0,0,0,0,0,0,0,0,0,0,0,0,0,0,0,0,0,0,0,0,0,0,0,0,0,0,0,0,0,0,0,0,0,0,0,0,0,0,0],"sum_hessian":[5.72E2,1.87E2,3.85E2,9.3E1,9.4E1,1.32E2,2.53E2,5E0,8.8E1,2E1,7.4E1,3.2E1,1E2,4.8E1,2.05E2,2.1E1,6.7E1,1.9E1,1E0,6E0,6.8E1,1E0,3.1E1,5E0,9.5E1,3.5E1,1.3E1,4E0,2.01E2,1.5E1,6E0,3.9E1,2.8E1,1.2E1,7E0,5E0,1E0,4.7E1,2.1E1,2.6E1,5E0,1E0,4E0,7.4E1,2.1E1,2.9E1,6E0,8E0,5E0,3E0,1E0,1.22E2,7.9E1],"tree_param":{"num_deleted":"0","num_feature":"17","num_nodes":"53","size_leaf_vector":"1"}},{"base_weights":[7.1852864E-3,-4.4341758E-1,2.2373554E-1,-6.937579E-1,-8.002995E-2,-1.3212177E-1,4.1273555E-1,-6.3476995E-2,-6.1029947E-1,-4.4109786E-1,2.9624255E-2,-5.1715124E-1,-2.4833165E-3,-5.904928E-2,5.292296E-1,-9.391204E-1,-4.785152E-1,-4.7256702E-1,2.3469448E-3,-5.6943405E-2,3.8064018E-1,-5.8374095E-1,-2.6731956E-1,-8.348336E-1,4.902787E-2,-2.1015882E-1,9.433139E-2,-3.602825E-1,5.7718503E-1,-5.233865E-2,-3.037536E-2,-3.0283604E-2,-1.5032097E-2,-2.883119E-2,-1.2076984E-2,-1.0960873E-2,2.6568708E-3,7.1510854E-3,2.2197753E-2,-3.308914E-2,-1.963479E-2,-3.5370232E-3,-1.415247E-2,-6.6354625E-2,-2.3548169E-2,-1.42696E-3,1.4307509E-2,-1.2466107E-2,2.095747E-4,-4.3774975E-4,1.4501146E-2,-4.3384403E-2,-3.0772209E-3,2.3673842E-2,3.995902E-2],"categories":[],"categories_nodes":[],"categories_segments":[],"categories_sizes":[],"default_left":[0,0,0,0,0,0,0,0,0,0,0,0,0,0,0,0,0,0,0,0,0,0,0,0,0,0,0,0,0,0,0,0,0,0,0,0,0,0,0,0,0,0,0,0,0,0,0,0,0,0,0,0,0,0,0],"id":9,"left_children":[1,3,5,7,9,11,13,-1,15,17,19,21,23,25,27,29,31,33,-1,35,37,39,41,43,45,47,49,51,53,-1,-1,-1,-1,-1,-1,-1,-1,-1,-1,-1,-1,-1,-1,-1,-1,-1,-1,-1,-1,-1,-1,-1,-1,-1,-1],"loss_changes":[5.591392E1,1.6865005E1,2.6083004E1,4.5111237E0,3.0616984E0,6.7371907E0,1.3936165E1,0E0,3.7972908E0,2.9862761E-1,1.8448727E0,4.0958595E-1,4.414216E0,1.201866E0,8.867317E0,3.2795143E-1,1.446392E0,2.6940203E-1,0E0,8.8694847E-1,1.17042065E-1,1.2776852E-1,7.8064203E-3,4.4969797E-1,1.792276E0,2.1930647E-1,5.270406E-1,1.6139936E0,4.064987E0,0E0,0E0,0E0,0E0,0E0,0E0,0E0,0E0,0E0,0E0,0E0,0E0,0E0,0E0,0E0,0E0,0E0,0E0,0E0,0E0,0E0,0E0,0E0,0E0,0E0,0E0],"parents":[2147483647,0,0,1,1,2,2,3,3,4,4,5,5,6,6,8,8,9,9,10,10,11,11,12,12,13,13,14,14,15,15,16,16,17,17,19,19,20,20,21,21,22,22,23,23,24,24,25,25,26,26,27,27,28,28],"right_children":[2,4,6,8,10,12,14,-1,16,18,20,22,24,26,28,30,32,34,-1,36,38,40,42,44,46,48,50,52,54,-1,-1,-1,-1,-1,-1,-1,-1,-1,-1,-1,-1,-1,-1,-1,-1,-1,-1,-1,-1,-1,-1,-1,-1,-1,-1],"split_conditions":[4.48E0,4.2989798E0,2.9224358E0,3.7E1,2.8E0,2.8E0,2.8E0,-6.3476995E-2,2.8E0,4.47E0,1.35E0,1.35E0,5.7E1,5.576628E0,1.356561E1,1.35E0,2.3028233E0,1.35E0,2.3469448E-3,5.7913003E0,4.9271502E0,1.898242E0,2.9732508E1,5.1813474E0,1.35E0,1.35E0,1.35E0,6.7442474E0,1.35E0,-5.233865E-2,-3.037536E-2,-3.0283604E-2,-1.5032097E-2,-2.883119E-2,-1.2076984E-2,-1.0960873E-2,2.6568708E-3,7.1510854E-3,2.2197753E-2,-3.308914E-2,-1.963479E-2,-3.5370232E-3,-1.415247E-2,-6.6354625E-2,-2.3548169E-2,-1.42696E-3,1.4307509E-2,-1.2466107E-2,2.095747E-4,-4.3774975E-4,1.4501146E-2,-4.3384403E-2,-3.0772209E-3,2.3673842E-2,3.995902E-2],"split_indices":[2,12,12,1,7,7,7,0,7,2,6,6,1,12,0,6,12,6,0,12,12,12,0,0,6,6,6,0,6,0,0,0,0,0,0,0,0,0,0,0,0,0,0,0,0,0,0,0,0,0,0,0,0,0,0],"split_type":[0,0,0,0,0,0,0,0,0,0,0,0,0,0,0,0,0,0,0,0,0,0,0,0,0,0,0,0,0,0,0,0,0,0,0,0,0,0,0,0,0,0,0,0,0,0,0,0,0,0,0,0,0,0,0],"sum_hessian":[5.71E2,1.85E2,3.86E2,1.09E2,7.6E1,1.34E2,2.52E2,1.2E1,9.7E1,1.7E1,5.9E1,3.3E1,1.01E2,5E1,2.02E2,2.6E1,7.1E1,1.6E1,1E0,4.8E1,1.1E1,2.5E1,8E0,5E0,9.6E1,2.5E1,2.5E1,1E1,1.92E2,1.8E1,8E0,4E1,3.1E1,1E1,6E0,1.9E1,2.9E1,3E0,8E0,1.6E1,9E0,1E0,7E0,1E0,4E0,7.3E1,2.3E1,2.1E1,4E0,1.7E1,8E0,3E0,7E0,1.33E2,5.9E1],"tree_param":{"num_deleted":"0","num_feature":"17","num_nodes":"55","size_leaf_vector":"1"}},{"base_weights":[-1.9661045E-2,-4.388872E-1,1.9708094E-1,-7.115614E-1,-1.389184E-1,-7.358921E-2,4.5845976E-1,-7.711402E-2,-6.1662716E-1,-7.227E-1,-7.02203E-2,-8.741253E-2,-3.7374057E-2,3.808639E-2,5.528057E-1,-9.3371874E-1,-5.023657E-1,-4.70979E-2,-2.4708344E-2,-1.8130955E-1,1.9738561E-1,-4.315797E-1,9.804913E-2,-4.2414434E-2,2.9324612E-1,-3.820193E-1,6.045203E-1,-5.5069722E-2,-3.3713017E-2,-2.7635416E-2,-6.748541E-3,-2.0889191E-2,-5.1817033E-3,-1.0705424E-2,1.3018391E-2,-2.5338167E-2,-1.3233529E-2,-3.7555029E-3,1.2456095E-2,-5.721604E-3,4.2917775E-3,5.443245E-3,1.8364629E-2,-4.1757483E-2,-8.1312656E-4,2.5144702E-2,4.2126868E-2],"categories":[],"categories_nodes":[],"categories_segments":[],"categories_sizes":[],"default_left":[0,0,0,0,0,0,0,0,0,0,0,0,0,0,0,0,0,0,0,0,0,0,0,0,0,0,0,0,0,0,0,0,0,0,0,0,0,0,0,0,0,0,0,0,0,0,0],"id":10,"left_children":[1,3,5,7,9,11,13,-1,15,17,19,-1,21,23,25,27,29,-1,-1,31,33,35,37,39,41,43,45,-1,-1,-1,-1,-1,-1,-1,-1,-1,-1,-1,-1,-1,-1,-1,-1,-1,-1,-1,-1],"loss_changes":[5.3060158E1,1.6178108E1,2.72715E1,7.2508087E0,3.7993016E0,1.1457805E1,7.7524147E0,0E0,2.9729118E0,3.559208E-2,2.6221356E0,0E0,1.0025233E1,7.7243894E-1,7.965996E0,3.0149078E-1,1.2570839E0,0E0,0E0,1.095535E0,7.2958386E-1,4.682188E-1,3.68106E0,2.7767393E-1,8.2889676E-2,1.478038E0,3.2529907E0,0E0,0E0,0E0,0E0,0E0,0E0,0E0,0E0,0E0,0E0,0E0,0E0,0E0,0E0,0E0,0E0,0E0,0E0,0E0,0E0],"parents":[2147483647,0,0,1,1,2,2,3,3,4,4,5,5,6,6,8,8,9,9,10,10,12,12,13,13,14,14,15,15,16,16,19,19,20,20,21,21,22,22,23,23,24,24,25,25,26,26],"right_children":[2,4,6,8,10,12,14,-1,16,18,20,-1,22,24,26,28,30,-1,-1,32,34,36,38,40,42,44,46,-1,-1,-1,-1,-1,-1,-1,-1,-1,-1,-1,-1,-1,-1,-1,-1,-1,-1,-1,-1],"split_conditions":[4.48E0,3.9337945E0,4.250308E0,2.9E1,4.5E1,6.7442474E0,2.8E0,-7.711402E-2,2.8E0,1.1917894E1,7.1162868E0,-8.741253E-2,2.8E0,1.35E0,1.356561E1,1.898242E0,1.35E0,-4.70979E-2,-2.4708344E-2,2.8E0,2.8E0,2.70064E0,1.8393091E0,6.695898E0,3.1610842E1,6.7442474E0,1.35E0,-5.5069722E-2,-3.3713017E-2,-2.7635416E-2,-6.748541E-3,-2.0889191E-2,-5.1817033E-3,-1.0705424E-2,1.3018391E-2,-2.5338167E-2,-1.3233529E-2,-3.7555029E-3,1.2456095E-2,-5.721604E-3,4.2917775E-3,5.443245E-3,1.8364629E-2,-4.1757483E-2,-8.1312656E-4,2.5144702E-2,4.2126868E-2],"split_indices":[2,12,12,1,1,0,7,0,7,0,12,0,7,6,0,12,6,0,0,7,7,12,12,12,0,0,6,0,0,0,0,0,0,0,0,0,0,0,0,0,0,0,0,0,0,0,0],"split_type":[0,0,0,0,0,0,0,0,0,0,0,0,0,0,0,0,0,0,0,0,0,0,0,0,0,0,0,0,0,0,0,0,0,0,0,0,0,0,0,0,0,0,0,0,0,0,0],"sum_hessian":[5.82E2,1.98E2,3.84E2,1.03E2,9.5E1,1.89E2,1.95E2,9E0,9.4E1,9E0,8.6E1,3E0,1.86E2,3.6E1,1.59E2,2.3E1,7.1E1,3E0,6E0,6.1E1,2.5E1,4.7E1,1.39E2,2.8E1,8E0,8E0,1.51E2,1.2E1,1.1E1,6.2E1,9E0,1.4E1,4.7E1,3E0,2.2E1,3.1E1,1.6E1,6.5E1,7.4E1,1.8E1,1E1,3E0,5E0,3E0,5E0,1.08E2,4.3E1],"tree_param":{"num_deleted":"0","num_feature":"17","num_nodes":"47","size_leaf_vector":"1"}},{"base_weights":[-6.2184306E-3,-4.1192523E-1,2.0041797E-1,-7.116829E-1,-1.4045587E-1,-1.3728215E-1,3.787107E-1,-8.633437E-2,-6.325933E-1,-6.9374573E-1,-7.945206E-2,-5.549149E-1,1.4825364E-2,-2.8439999E-2,4.796138E-1,-9.6109474E-1,-5.184853E-1,-4.5331735E-2,-2.3649417E-2,-4.3685427E-1,1.2149194E-2,-7.1746916E-2,-4.868278E-1,-5.663944E-2,2.7615702E-1,-1.04398616E-1,1.9578058E-1,-8.592752E-1,5.11649E-1,-5.21104E-2,-2.9230515E-2,-2.8425658E-2,-6.9237235E-3,-2.609605E-2,-1.4217227E-2,-3.091054E-3,1.84843E-2,-2.6847452E-2,-1.0839793E-2,-2.2618135E-2,-1.4379612E-3,5.3025824E-3,1.6856452E-2,-7.2092684E-3,3.1412423E-3,4.342225E-3,1.763547E-2,-5.0200183E-2,-7.0090415E-3,1.643326E-2,3.1995296E-2],"categories":[],"categories_nodes":[],"categories_segments":[],"categories_sizes":[],"default_left":[0,0,0,0,0,0,0,0,0,0,0,0,0,0,0,0,0,0,0,0,0,0,0,0,0,0,0,0,0,0,0,0,0,0,0,0,0,0,0,0,0,0,0,0,0,0,0,0,0,0,0],"id":11,"left_children":[1,3,5,7,9,11,13,-1,15,17,19,21,23,25,27,29,31,-1,-1,33,35,-1,37,39,41,43,45,47,49,-1,-1,-1,-1,-1,-1,-1,-1,-1,-1,-1,-1,-1,-1,-1,-1,-1,-1,-1,-1,-1,-1],"loss_changes":[4.7700153E1,1.5524044E1,2.2750954E1,6.2128563E0,3.3876648E0,8.330011E0,1.0161095E1,0E0,2.7253647E0,4.1140556E-2,3.0499873E0,1.398571E0,1.827215E0,8.720134E-1,8.932182E0,3.2009125E-2,1.1760082E0,0E0,0E0,9.809089E-2,2.0063865E0,0E0,3.437605E-1,8.3652E-1,1.820519E-1,2.6188293E-1,1.9160688E-1,3.796246E-1,4.342659E0,0E0,0E0,0E0,0E0,0E0,0E0,0E0,0E0,0E0,0E0,0E0,0E0,0E0,0E0,0E0,0E0,0E0,0E0,0E0,0E0,0E0,0E0],"parents":[2147483647,0,0,1,1,2,2,3,3,4,4,5,5,6,6,8,8,9,9,10,10,11,11,12,12,13,13,14,14,15,15,16,16,19,19,20,20,22,22,23,23,24,24,25,25,26,26,27,27,28,28],"right_children":[2,4,6,8,10,12,14,-1,16,18,20,22,24,26,28,30,32,-1,-1,34,36,-1,38,40,42,44,46,48,50,-1,-1,-1,-1,-1,-1,-1,-1,-1,-1,-1,-1,-1,-1,-1,-1,-1,-1,-1,-1,-1,-1],"split_conditions":[4.47E0,3.6647832E0,2.9224358E0,1E0,2.1805145E1,1E0,1E0,-8.633437E-2,1E0,1.1917894E1,1E0,6.7442474E0,1.35E0,7.1162868E0,8.536367E0,1.35E0,1.35E0,-4.5331735E-2,-2.3649417E-2,5.801999E0,1.35E0,-7.1746916E-2,1.35E0,5.7E1,8.228863E-1,1.35E0,1.35E0,6.7442474E0,5.4591455E0,-5.21104E-2,-2.9230515E-2,-2.8425658E-2,-6.9237235E-3,-2.609605E-2,-1.4217227E-2,-3.091054E-3,1.84843E-2,-2.6847452E-2,-1.0839793E-2,-2.2618135E-2,-1.4379612E-3,5.3025824E-3,1.6856452E-2,-7.2092684E-3,3.1412423E-3,4.342225E-3,1.763547E-2,-5.0200183E-2,-7.0090415E-3,1.643326E-2,3.1995296E-2],"split_indices":[2,12,12,3,0,16,16,0,16,0,16,0,6,12,0,6,6,0,0,12,6,0,6,1,12,6,6,0,12,0,0,0,0,0,0,0,0,0,0,0,0,0,0,0,0,0,0,0,0,0,0],"split_type":[0,0,0,0,0,0,0,0,0,0,0,0,0,0,0,0,0,0,0,0,0,0,0,0,0,0,0,0,0,0,0,0,0,0,0,0,0,0,0,0,0,0,0,0,0,0,0,0,0,0,0],"sum_hessian":[5.67E2,1.91E2,3.76E2,9E1,1.01E2,1.3E2,2.46E2,5E0,8.5E1,9E0,9.2E1,3.4E1,9.6E1,4.9E1,1.97E2,2E1,6.5E1,3E0,6E0,1.8E1,7.4E1,1E0,3.3E1,7.6E1,2E1,3.7E1,1.2E1,4E0,1.93E2,1.5E1,5E0,5.7E1,8E0,1E1,8E0,6.2E1,1.2E1,2.7E1,6E0,4E0,7.2E1,6E0,1.4E1,3E1,7E0,8E0,4E0,3E0,1E0,8.1E1,1.12E2],"tree_param":{"num_deleted":"0","num_feature":"17","num_nodes":"51","size_leaf_vector":"1"}},{"base_weights":[-2.2180784E-2,-1.129235E0,5.2633725E-2,-8.64896E-2,-7.957983E-1,-2.7087712E-1,2.431174E-1,-4.0796757E-2,-7.812858E-3,-5.907456E-1,-9.90171E-2,-9.523526E-2,3.868907E-1,-4.4994883E-2,-4.6398813E-1,-4.608642E-1,2.3839751E-2,-4.1477305E-1,-6.171924E-3,-2.6024207E-2,4.9522683E-1,-2.5428204E-2,-5.5572204E-3,-2.6188418E-2,-9.940875E-3,-2.1266115E-3,1.3461451E-2,-2.4830502E-2,-1.3345385E-2,-5.2761715E-3,1.0211606E-2,-9.586222E-3,4.5416714E-3,1.9546784E-2,3.574298E-2],"categories":[],"categories_nodes":[],"categories_segments":[],"categories_sizes":[],"default_left":[0,0,0,0,0,0,0,0,0,0,0,0,0,0,0,0,0,0,0,0,0,0,0,0,0,0,0,0,0,0,0,0,0,0,0],"id":12,"left_children":[1,3,5,-1,7,9,11,-1,-1,13,15,17,19,-1,21,23,25,27,29,31,33,-1,-1,-1,-1,-1,-1,-1,-1,-1,-1,-1,-1,-1,-1],"loss_changes":[4.7103306E1,5.8323517E0,3.29112E1,0E0,1.9446373E-1,1.0826084E1,1.638193E1,0E0,0E0,2.2863865E0,5.790188E0,2.8718092E0,1.0570019E1,0E0,7.456217E-1,4.398322E-1,1.6075742E0,1.3366985E-1,1.6938678E0,9.8558176E-1,4.00391E0,0E0,0E0,0E0,0E0,0E0,0E0,0E0,0E0,0E0,0E0,0E0,0E0,0E0,0E0],"parents":[2147483647,0,0,1,1,2,2,4,4,5,5,6,6,9,9,10,10,11,11,12,12,14,14,15,15,16,16,17,17,18,18,19,19,20,20],"right_children":[2,4,6,-1,8,10,12,-1,-1,14,16,18,20,-1,22,24,26,28,30,32,34,-1,-1,-1,-1,-1,-1,-1,-1,-1,-1,-1,-1,-1,-1],"split_conditions":[4.5E1,1E0,5.7E-1,-8.64896E-2,6.858845E0,2.03E0,2.03E0,-4.0796757E-2,-7.812858E-3,2.8E0,2.8E0,2.8E0,2.8E0,-4.4994883E-2,1.35E0,1.35E0,1.35E0,5.801999E0,6.6590147E0,5.576628E0,1.35E0,-2.5428204E-2,-5.5572204E-3,-2.6188418E-2,-9.940875E-3,-2.1266115E-3,1.3461451E-2,-2.4830502E-2,-1.3345385E-2,-5.2761715E-3,1.0211606E-2,-9.586222E-3,4.5416714E-3,1.9546784E-2,3.574298E-2],"split_indices":[1,3,13,0,12,2,2,0,0,7,7,7,7,0,6,6,6,12,12,12,6,0,0,0,0,0,0,0,0,0,0,0,0,0,0],"split_type":[0,0,0,0,0,0,0,0,0,0,0,0,0,0,0,0,0,0,0,0,0,0,0,0,0,0,0,0,0,0,0,0,0,0,0],"sum_hessian":[5.67E2,3.5E1,5.32E2,1.1E1,2.4E1,1.97E2,3.35E2,2.3E1,1E0,6.8E1,1.29E2,1E2,2.35E2,1.8E1,5E1,3.2E1,9.7E1,2.1E1,7.9E1,4.9E1,1.86E2,4.4E1,6E0,2.5E1,7E0,7.7E1,2E1,1.2E1,9E0,5.4E1,2.5E1,2E1,2.9E1,1.28E2,5.8E1],"tree_param":{"num_deleted":"0","num_feature":"17","num_nodes":"35","size_leaf_vector":"1"}},{"base_weights":[-1.1332579E-2,-3.7908617E-1,1.7401409E-1,-9.857198E-1,-2.658051E-1,-1.3111009E-1,3.3500016E-1,-7.926587E-2,-7.697655E-1,-5.2393323E-1,-9.9607036E-2,-4.3001848E-1,-1.5741825E-2,-2.896307E-2,4.279556E-1,-3.9499283E-2,-7.617533E-3,-4.1241452E-2,-4.231858E-1,-3.7240517E-1,-2.3342466E-2,-4.815263E-1,-2.1626912E-1,-7.525789E-1,3.2483872E-2,-1.7983924E-1,8.7674096E-2,-3.7479228E-1,4.6774366E-1,-2.38307E-2,-4.1555497E-3,-2.3995964E-2,-1.1063102E-2,-4.4871825E-3,1.6289119E-2,-2.7237931E-2,-1.5345447E-2,-1.1637148E-2,-2.1119595E-3,-5.9782743E-2,-2.1241637E-2,-5.3894976E-3,7.3683276E-3,-1.02339825E-2,-5.3386687E-4,1.1983599E-4,1.2899458E-2,-3.8374573E-2,-4.8425505E-3,1.8593963E-2,3.4329247E-2],"categories":[],"categories_nodes":[],"categories_segments":[],"categories_sizes":[],"default_left":[0,0,0,0,0,0,0,0,0,0,0,0,0,0,0,0,0,0,0,0,0,0,0,0,0,0,0,0,0,0,0,0,0,0,0,0,0,0,0,0,0,0,0,0,0,0,0,0,0,0,0],"id":13,"left_children":[1,3,5,7,9,11,13,-1,15,17,19,21,23,25,27,-1,-1,-1,29,31,33,35,37,39,41,43,45,47,49,-1,-1,-1,-1,-1,-1,-1,-1,-1,-1,-1,-1,-1,-1,-1,-1,-1,-1,-1,-1,-1,-1],"loss_changes":[3.9259064E1,1.3000969E1,1.8857164E1,2.6642494E0,6.9834757E0,4.5796747E0,8.504318E0,0E0,1.7926598E-1,1.5910702E0,2.092595E0,3.0322123E-1,3.4712913E0,9.308511E-1,6.5632706E0,0E0,0E0,0E0,8.688679E-1,2.513125E-1,1.8838211E0,1.5301132E-1,1.5971571E-2,3.6334538E-1,1.4984677E0,9.446186E-2,4.3510234E-1,1.0171406E0,3.7516785E0,0E0,0E0,0E0,0E0,0E0,0E0,0E0,0E0,0E0,0E0,0E0,0E0,0E0,0E0,0E0,0E0,0E0,0E0,0E0,0E0,0E0,0E0],"parents":[2147483647,0,0,1,1,2,2,3,3,4,4,5,5,6,6,8,8,9,9,10,10,11,11,12,12,13,13,14,14,18,18,19,19,20,20,21,21,22,22,23,23,24,24,25,25,26,26,27,27,28,28],"right_children":[2,4,6,8,10,12,14,-1,16,18,20,22,24,26,28,-1,-1,-1,30,32,34,36,38,40,42,44,46,48,50,-1,-1,-1,-1,-1,-1,-1,-1,-1,-1,-1,-1,-1,-1,-1,-1,-1,-1,-1,-1,-1,-1],"split_conditions":[4.48E0,4.5E1,2.9224358E0,1E0,3.0730567E0,2.8E0,2.8E0,-7.926587E-2,6.858845E0,2.8E0,2.8E0,1.35E0,5.7E1,5.576628E0,1.356561E1,-3.9499283E-2,-7.617533E-3,-4.1241452E-2,1.35E0,5.801999E0,1.35E0,1.9768445E0,6.51E0,5.1813474E0,2.4E-1,1.35E0,1.35E0,6.7442474E0,6.718513E0,-2.38307E-2,-4.1555497E-3,-2.3995964E-2,-1.1063102E-2,-4.4871825E-3,1.6289119E-2,-2.7237931E-2,-1.5345447E-2,-1.1637148E-2,-2.1119595E-3,-5.9782743E-2,-2.1241637E-2,-5.3894976E-3,7.3683276E-3,-1.02339825E-2,-5.3386687E-4,1.1983599E-4,1.2899458E-2,-3.8374573E-2,-4.8425505E-3,1.8593963E-2,3.4329247E-2],"split_indices":[2,1,12,3,12,7,7,0,12,7,7,6,1,12,0,0,0,0,6,12,6,12,2,0,13,6,6,0,12,0,0,0,0,0,0,0,0,0,0,0,0,0,0,0,0,0,0,0,0,0,0],"split_type":[0,0,0,0,0,0,0,0,0,0,0,0,0,0,0,0,0,0,0,0,0,0,0,0,0,0,0,0,0,0,0,0,0,0,0,0,0,0,0,0,0,0,0,0,0,0,0,0,0,0,0],"sum_hessian":[5.74E2,1.92E2,3.82E2,2.9E1,1.63E2,1.32E2,2.5E2,6E0,2.3E1,6.3E1,1E2,3.6E1,9.6E1,5.1E1,1.99E2,2.2E1,1E0,1.4E1,4.9E1,2.1E1,7.9E1,2.8E1,8E0,5E0,9.1E1,2.2E1,2.9E1,9E0,1.9E2,4.2E1,7E0,1.1E1,1E1,6.7E1,1.2E1,1.9E1,9E0,7E0,1E0,1E0,4E0,4.1E1,5E1,1.9E1,3E0,2E1,9E0,3E0,6E0,1.34E2,5.6E1],"tree_param":{"num_deleted":"0","num_feature":"17","num_nodes":"51","size_leaf_vector":"1"}},{"base_weights":[-4.7993134E-3,-9.686715E-1,6.1375212E-2,-1.5010073E0,-6.5311E-1,-2.2670728E-1,2.3472646E-1,-7.9701565E-2,-9.617949E-3,-7.072778E-1,-1.4749174E-2,-5.646814E-1,-1.0043019E-1,-7.583354E-2,3.5340643E-1,-3.729451E-2,-1.1348653E-2,-8.035416E-1,-4.2676184E-1,-3.9314744E-1,2.5976535E-2,-3.7033716E-1,8.7666E-3,-1.626907E-2,4.51177E-1,-4.4060584E-2,-2.4419388E-2,-2.5528554E-2,-1.5496573E-2,-2.2441892E-2,-3.9737406E-3,-3.1266715E-3,8.868302E-3,-8.6647674E-4,-2.032919E-2,-5.18432E-3,1.1018003E-2,-4.678697E-3,9.032726E-3,1.6726715E-2,3.008666E-2],"categories":[],"categories_nodes":[],"categories_segments":[],"categories_sizes":[],"default_left":[0,0,0,0,0,0,0,0,0,0,0,0,0,0,0,0,0,0,0,0,0,0,0,0,0,0,0,0,0,0,0,0,0,0,0,0,0,0,0,0,0],"id":14,"left_children":[1,3,5,7,9,11,13,-1,-1,15,-1,17,19,21,23,-1,-1,25,27,29,31,33,35,37,39,-1,-1,-1,-1,-1,-1,-1,-1,-1,-1,-1,-1,-1,-1,-1,-1],"loss_changes":[3.673513E1,5.2351074E0,2.6970581E1,1.27594E0,2.7633858E-1,8.607001E0,1.2447693E1,0E0,0E0,2.2016335E-1,0E0,1.4689713E0,5.523426E0,2.345261E0,8.826326E0,0E0,0E0,3.4708977E-2,2.0404243E-1,7.5041246E-1,1.4180367E0,2.6165605E-1,1.7836279E0,8.0850846E-1,3.1880264E0,0E0,0E0,0E0,0E0,0E0,0E0,0E0,0E0,0E0,0E0,0E0,0E0,0E0,0E0,0E0,0E0],"parents":[2147483647,0,0,1,1,2,2,3,3,4,4,5,5,6,6,9,9,11,11,12,12,13,13,14,14,17,17,18,18,19,19,20,20,21,21,22,22,23,23,24,24],"right_children":[2,4,6,8,10,12,14,-1,-1,16,-1,18,20,22,24,-1,-1,26,28,30,32,34,36,38,40,-1,-1,-1,-1,-1,-1,-1,-1,-1,-1,-1,-1,-1,-1,-1,-1],"split_conditions":[4.5E1,1E0,5.7E-1,8.128889E0,4.4382024E0,2.8E0,4.48E0,-7.9701565E-2,-9.617949E-3,4.48E0,-1.4749174E-2,2.03E0,2.02E0,2.8E0,2.8E0,-3.729451E-2,-1.1348653E-2,1.35E0,1.6383146E0,1.35E0,1.8393091E0,2.3546112E1,6.6590147E0,7.1162868E0,6.38419E0,-4.4060584E-2,-2.4419388E-2,-2.5528554E-2,-1.5496573E-2,-2.2441892E-2,-3.9737406E-3,-3.1266715E-3,8.868302E-3,-8.6647674E-4,-2.032919E-2,-5.18432E-3,1.1018003E-2,-4.678697E-3,9.032726E-3,1.6726715E-2,3.008666E-2],"split_indices":[1,3,13,12,12,7,2,0,0,2,0,2,2,7,7,0,0,6,12,6,12,0,12,12,12,0,0,0,0,0,0,0,0,0,0,0,0,0,0,0,0],"split_type":[0,0,0,0,0,0,0,0,0,0,0,0,0,0,0,0,0,0,0,0,0,0,0,0,0,0,0,0,0,0,0,0,0,0,0,0,0,0,0,0,0],"sum_hessian":[5.74E2,3.6E1,5.38E2,1.2E1,2.4E1,2.02E2,3.36E2,1.1E1,1E0,2E1,4E0,5.4E1,1.48E2,9.3E1,2.43E2,1.8E1,2E0,1.8E1,3.6E1,4.4E1,1.04E2,2E1,7.3E1,5.1E1,1.92E2,1.3E1,5E0,1.9E1,1.7E1,3.7E1,7E0,6.6E1,3.8E1,2E0,1.8E1,4.8E1,2.5E1,3.7E1,1.4E1,1.1E2,8.2E1],"tree_param":{"num_deleted":"0","num_feature":"17","num_nodes":"41","size_leaf_vector":"1"}},{"base_weights":[-7.382389E-3,-2.1927038E-1,2.546752E-1,-8.329478E-2,-1.8207078E-1,-4.890504E-2,3.744297E-1,-4.7058564E-1,-1.5487638E-2,-5.883785E-1,-1.9658157E-3,3.0740116E-2,4.5285058E-1,-7.240561E-1,-3.8931578E-1,-3.3234167E-1,8.816066E-2,-3.9944746E-2,-1.416983E-2,-3.0216196E-1,7.180106E-2,-2.3222413E-2,1.9520797E-1,-3.549661E-1,4.940128E-1,-4.113611E-2,-2.1765526E-2,-3.453797E-2,-1.5990846E-2,-1.9104226E-2,-7.1491185E-3,-7.9411104E-5,1.5179663E-2,3.1754256E-3,-1.6758787E-2,-7.36107E-5,1.7334927E-2,-4.119395E-3,3.1265279E-3,5.6169988E-3,1.3535398E-2,-3.151391E-2,-3.1861593E-3,2.0253021E-2,3.5596907E-2],"categories":[],"categories_nodes":[],"categories_segments":[],"categories_sizes":[],"default_left":[0,0,0,0,0,0,0,0,0,0,0,0,0,0,0,0,0,0,0,0,0,0,0,0,0,0,0,0,0,0,0,0,0,0,0,0,0,0,0,0,0,0,0,0,0],"id":15,"left_children":[1,3,5,-1,7,9,11,13,15,17,19,21,23,25,27,29,31,-1,-1,33,35,37,39,41,43,-1,-1,-1,-1,-1,-1,-1,-1,-1,-1,-1,-1,-1,-1,-1,-1,-1,-1,-1,-1],"loss_changes":[3.2539055E1,1.7132387E1,9.543348E0,0E0,1.5228272E1,1.8980284E0,5.053135E0,2.1076584E0,6.6632576E0,1.58818E-1,1.5718127E0,3.2403684E-1,5.2628403E0,4.1107464E-1,1.6645832E0,4.1633224E-1,2.9587116E0,0E0,0E0,1.9029689E-1,1.1486408E0,1.4721301E-1,2.5897473E-2,6.0129833E-1,2.5418282E0,0E0,0E0,0E0,0E0,0E0,0E0,0E0,0E0,0E0,0E0,0E0,0E0,0E0,0E0,0E0,0E0,0E0,0E0,0E0,0E0],"parents":[2147483647,0,0,1,1,2,2,4,4,5,5,6,6,7,7,8,8,9,9,10,10,11,11,12,12,13,13,14,14,15,15,16,16,19,19,20,20,21,21,22,22,23,23,24,24],"right_children":[2,4,6,-1,8,10,12,14,16,18,20,22,24,26,28,30,32,-1,-1,34,36,38,40,42,44,-1,-1,-1,-1,-1,-1,-1,-1,-1,-1,-1,-1,-1,-1,-1,-1,-1,-1,-1,-1],"split_conditions":[4.4382024E0,1E0,4.48E0,-8.329478E-2,4.48E0,9.3E1,2.8E0,2.8E0,2.8E0,7.785369E0,2.8E0,1.35E0,1.2452208E1,1.35E0,1.9054962E1,1.35E0,1.35E0,-3.9944746E-2,-1.416983E-2,1.4037165E1,1.35E0,6.695898E0,5.9078264E0,6.7442474E0,1.35E0,-4.113611E-2,-2.1765526E-2,-3.453797E-2,-1.5990846E-2,-1.9104226E-2,-7.1491185E-3,-7.9411104E-5,1.5179663E-2,3.1754256E-3,-1.6758787E-2,-7.36107E-5,1.7334927E-2,-4.119395E-3,3.1265279E-3,5.6169988E-3,1.3535398E-2,-3.151391E-2,-3.1861593E-3,2.0253021E-2,3.5596907E-2],"split_indices":[12,3,2,0,2,4,7,7,7,0,7,6,0,6,0,6,6,0,0,0,6,12,12,0,6,0,0,0,0,0,0,0,0,0,0,0,0,0,0,0,0,0,0,0,0],"split_type":[0,0,0,0,0,0,0,0,0,0,0,0,0,0,0,0,0,0,0,0,0,0,0,0,0,0,0,0,0,0,0,0,0,0,0,0,0,0,0,0,0,0,0,0,0],"sum_hessian":[5.84E2,3.23E2,2.61E2,7E0,3.16E2,7.4E1,1.87E2,1.15E2,2.01E2,5E0,6.9E1,3.5E1,1.52E2,2.6E1,8.9E1,4.9E1,1.52E2,2E0,3E0,1.3E1,5.6E1,2.7E1,8E0,7E0,1.45E2,1.8E1,8E0,1.5E1,7.4E1,3.8E1,1.1E1,1.08E2,4.4E1,1E0,1.2E1,4.5E1,1.1E1,1.6E1,1.1E1,5E0,3E0,3E0,4E0,1.05E2,4E1],"tree_param":{"num_deleted":"0","num_feature":"17","num_nodes":"45","size_leaf_vector":"1"}},{"base_weights":[-2.113713E-2,-8.6078155E-1,3.841839E-2,-1.3793678E0,-5.883271E-1,-1.1865008E-1,3.024186E-1,-1.4735297E0,-8.589662E-3,-3.629254E-2,-4.1860312E-1,-3.7185854E-1,7.342525E-3,3.968329E-2,4.002023E-1,-7.9871856E-2,-3.053155E-2,-4.715506E-1,-3.3639353E-3,-6.310825E-1,-2.8305247E-1,-3.089651E-1,1.14650905E-1,-2.599925E-1,1.0539606E-1,5.8298044E-2,4.7996855E-1,-2.466847E-2,-5.7886005E-3,-3.6779758E-2,-2.0609587E-2,-2.233814E-2,-7.71864E-3,-2.0844517E-2,-9.307544E-3,1.4455817E-3,1.7488843E-2,-1.5567401E-2,-5.2561103E-3,1.5714335E-3,1.8056953E-2,-6.8528776E-4,1.0591446E-2,2.028512E-2,3.4310814E-2],"categories":[],"categories_nodes":[],"categories_segments":[],"categories_sizes":[],"default_left":[0,0,0,0,0,0,0,0,0,0,0,0,0,0,0,0,0,0,0,0,0,0,0,0,0,0,0,0,0,0,0,0,0,0,0,0,0,0,0,0,0,0,0,0,0],"id":16,"left_children":[1,3,5,7,9,11,13,15,-1,-1,17,19,21,23,25,-1,-1,27,-1,29,31,33,35,37,39,41,43,-1,-1,-1,-1,-1,-1,-1,-1,-1,-1,-1,-1,-1,-1,-1,-1,-1,-1],"loss_changes":[2.7936117E1,4.416252E0,2.168119E1,1.1113491E0,3.030243E-1,1.0466716E1,4.99391E0,2.0067215E-1,0E0,0E0,2.2869945E-1,2.3306208E0,7.5027637E0,1.0907986E0,3.8447018E0,0E0,0E0,3.603363E-2,0E0,3.1446934E-1,1.6795254E0,6.6466236E-1,3.3162093E0,4.6804905E-2,8.398988E-1,3.1243783E-1,1.4830818E0,0E0,0E0,0E0,0E0,0E0,0E0,0E0,0E0,0E0,0E0,0E0,0E0,0E0,0E0,0E0,0E0,0E0,0E0],"parents":[2147483647,0,0,1,1,2,2,3,3,4,4,5,5,6,6,7,7,10,10,11,11,12,12,13,13,14,14,17,17,19,19,20,20,21,21,22,22,23,23,24,24,25,25,26,26],"right_children":[2,4,6,8,10,12,14,16,-1,-1,18,20,22,24,26,-1,-1,28,-1,30,32,34,36,38,40,42,44,-1,-1,-1,-1,-1,-1,-1,-1,-1,-1,-1,-1,-1,-1,-1,-1,-1,-1],"split_conditions":[4.5E1,1E0,5.2823963E0,8.128889E0,2.599302E0,1E0,1E0,2.8E1,-8.589662E-3,-3.629254E-2,3.8E1,2.8E0,2.8E0,2.8E0,2.8E0,-7.9871856E-2,-3.053155E-2,1.35E0,-3.3639353E-3,1.35E0,2.011814E0,4E-1,1.35E0,1.35E0,1.35E0,1.35E0,1.35E0,-2.466847E-2,-5.7886005E-3,-3.6779758E-2,-2.0609587E-2,-2.233814E-2,-7.71864E-3,-2.0844517E-2,-9.307544E-3,1.4455817E-3,1.7488843E-2,-1.5567401E-2,-5.2561103E-3,1.5714335E-3,1.8056953E-2,-6.8528776E-4,1.0591446E-2,2.028512E-2,3.4310814E-2],"split_indices":[1,3,12,12,12,5,5,1,0,0,1,7,7,7,7,0,0,6,0,6,12,13,6,6,6,6,6,0,0,0,0,0,0,0,0,0,0,0,0,0,0,0,0,0,0],"split_type":[0,0,0,0,0,0,0,0,0,0,0,0,0,0,0,0,0,0,0,0,0,0,0,0,0,0,0,0,0,0,0,0,0,0,0,0,0,0,0,0,0,0,0,0,0],"sum_hessian":[5.57E2,3.6E1,5.21E2,1.1E1,2.5E1,3.27E2,1.94E2,1E1,1E0,1.2E1,1.3E1,1.08E2,2.19E2,5.3E1,1.41E2,8E0,2E0,1.1E1,2E0,2.6E1,8.2E1,5.5E1,1.64E2,9E0,4.4E1,2.7E1,1.14E2,1E1,1E0,1.6E1,1E1,3.5E1,4.7E1,2.8E1,2.7E1,1.21E2,4.3E1,6E0,3E0,3.5E1,9E0,1.9E1,8E0,8.6E1,2.8E1],"tree_param":{"num_deleted":"0","num_feature":"17","num_nodes":"45","size_leaf_vector":"1"}},{"base_weights":[-1.0836705E-2,-2.110297E-1,2.37667E-1,-9.4376403E-1,-1.3880812E-1,-2.4499098E-2,3.400752E-1,-7.7597044E-2,-6.671365E-1,-3.8423926E-1,-1.9172369E-2,-2.7214232E-1,3.996896E-2,2.622082E-2,4.283002E-1,-3.4802034E-2,-2.226293E-3,-6.113063E-1,-2.9310906E-1,-3.1345546E-1,8.243678E-2,-2.4346633E-2,-1.7786701E-1,-2.6823988E-2,3.2779554E-1,-3.2138854E-2,2.1034971E-1,-3.511866E-1,4.5931202E-1,-3.8435142E-2,-2.3244476E-2,-2.462068E-2,-1.0085552E-2,-2.4179151E-2,-1.2350255E-2,-3.3295646E-3,1.056509E-2,3.1131746E-3,-1.0267869E-2,-7.5794715E-3,2.3242875E-3,3.921807E-3,1.7244395E-2,-4.1713207E-3,3.0146302E-3,5.1074624E-3,1.4906016E-2,-2.4046052E-2,-3.0572573E-3,1.8429358E-2,3.3137556E-2],"categories":[],"categories_nodes":[],"categories_segments":[],"categories_sizes":[],"default_left":[0,0,0,0,0,0,0,0,0,0,0,0,0,0,0,0,0,0,0,0,0,0,0,0,0,0,0,0,0,0,0,0,0,0,0,0,0,0,0,0,0,0,0,0,0,0,0,0,0,0,0],"id":17,"left_children":[1,3,5,7,9,11,13,-1,15,17,19,21,23,25,27,-1,-1,29,31,33,35,-1,37,39,41,43,45,47,49,-1,-1,-1,-1,-1,-1,-1,-1,-1,-1,-1,-1,-1,-1,-1,-1,-1,-1,-1,-1,-1,-1],"loss_changes":[2.8207918E1,1.6485634E1,6.800864E0,3.6753235E0,8.419624E0,1.1603628E0,5.0283146E0,0E0,3.469267E-1,1.7659321E0,5.8268E0,2.1713209E-1,1.1238304E0,4.4733417E-1,3.593914E0,0E0,0E0,2.4182034E-1,1.1575809E0,4.458046E-1,2.7987242E0,0E0,9.200156E-2,4.4607976E-1,1.9831777E-2,1.5672866E-1,6.451538E-2,1.9636416E-1,2.2843266E0,0E0,0E0,0E0,0E0,0E0,0E0,0E0,0E0,0E0,0E0,0E0,0E0,0E0,0E0,0E0,0E0,0E0,0E0,0E0,0E0,0E0,0E0],"parents":[2147483647,0,0,1,1,2,2,3,3,4,4,5,5,6,6,8,8,9,9,10,10,11,11,12,12,13,13,14,14,17,17,18,18,19,19,20,20,22,22,23,23,24,24,25,25,26,26,27,27,28,28],"right_children":[2,4,6,8,10,12,14,-1,16,18,20,22,24,26,28,-1,-1,30,32,34,36,-1,38,40,42,44,46,48,50,-1,-1,-1,-1,-1,-1,-1,-1,-1,-1,-1,-1,-1,-1,-1,-1,-1,-1,-1,-1,-1,-1],"split_conditions":[4.4382024E0,4.3E1,4.48E0,8.8E-1,4.49E0,2.8E0,2.8E0,-7.7597044E-2,4.52E0,2.8E0,2.8E0,1E0,1.35E0,1.35E0,1.2452208E1,-3.4802034E-2,-2.226293E-3,2.253157E0,1.2891415E0,1.2727407E0,1.940858E0,-2.4346633E-2,1.4037165E1,5.7913003E0,4.5829306E0,6.695898E0,5.9078264E0,1.08913965E1,1.35E0,-3.8435142E-2,-2.3244476E-2,-2.462068E-2,-1.0085552E-2,-2.4179151E-2,-1.2350255E-2,-3.3295646E-3,1.056509E-2,3.1131746E-3,-1.0267869E-2,-7.5794715E-3,2.3242875E-3,3.921807E-3,1.7244395E-2,-4.1713207E-3,3.0146302E-3,5.1074624E-3,1.4906016E-2,-2.4046052E-2,-3.0572573E-3,1.8429358E-2,3.3137556E-2],"split_indices":[12,1,2,15,2,7,7,0,2,7,7,6,6,6,0,0,0,12,12,12,12,0,0,12,12,12,12,0,6,0,0,0,0,0,0,0,0,0,0,0,0,0,0,0,0,0,0,0,0,0,0],"split_type":[0,0,0,0,0,0,0,0,0,0,0,0,0,0,0,0,0,0,0,0,0,0,0,0,0,0,0,0,0,0,0,0,0,0,0,0,0,0,0,0,0,0,0,0,0,0,0,0,0,0,0],"sum_hessian":[5.65E2,3.13E2,2.52E2,2.7E1,2.86E2,7.1E1,1.81E2,7E0,2E1,9.3E1,1.93E2,1.4E1,5.7E1,4E1,1.41E2,1.9E1,1E0,2.5E1,6.8E1,4.9E1,1.44E2,3E0,1.1E1,4.7E1,1E1,3.1E1,9E0,5E0,1.36E2,1E1,1.5E1,2E1,4.8E1,1.2E1,3.7E1,6.7E1,7.7E1,1E0,1E1,1.7E1,3E1,1E0,9E0,2E1,1.1E1,5E0,4E0,3E0,2E0,9.6E1,4E1],"tree_param":{"num_deleted":"0","num_feature":"17","num_nodes":"51","size_leaf_vector":"1"}},{"base_weights":[-7.562964E-3,-3.0723453E-1,1.3548121E-1,-5.1084495E-1,-1.1295503E-1,-1.0116446E-1,2.8489664E-1,-6.0218792E-2,-4.6563473E-1,-5.355397E-1,-6.9441505E-2,-7.291665E-2,-7.3712684E-2,-1.7647028E-2,3.5753542E-1,-3.663371E-2,-3.8148364E-1,-3.4149867E-2,-1.73989E-2,-1.891271E-1,7.184507E-2,-3.4223476E-1,1.565733E-2,-7.2527796E-2,1.5303926E-1,-3.716754E-1,3.946187E-1,-3.0795995E-2,-1.5530522E-2,-1.8412255E-2,-6.054111E-3,-8.714914E-3,6.3026845E-3,-1.9438172E-2,-7.455654E-3,-1.9965435E-3,9.91563E-3,-8.119261E-3,1.8338136E-4,3.4718364E-3,1.2809773E-2,-3.1925183E-2,-4.368631E-3,1.550047E-2,2.8215168E-2],"categories":[],"categories_nodes":[],"categories_segments":[],"categories_sizes":[],"default_left":[0,0,0,0,0,0,0,0,0,0,0,0,0,0,0,0,0,0,0,0,0,0,0,0,0,0,0,0,0,0,0,0,0,0,0,0,0,0,0,0,0,0,0,0,0],"id":18,"left_children":[1,3,5,7,9,11,13,-1,15,17,19,-1,21,23,25,-1,27,-1,-1,29,31,33,35,37,39,41,43,-1,-1,-1,-1,-1,-1,-1,-1,-1,-1,-1,-1,-1,-1,-1,-1,-1,-1],"loss_changes":[2.507553E1,7.4186325E0,1.4030794E1,2.3238297E0,1.7648495E0,5.630032E0,5.346575E0,0E0,1.6980057E0,1.1248827E-2,1.535485E0,0E0,3.653027E0,4.6073452E-1,5.446808E0,0E0,9.5514107E-1,0E0,0E0,5.526272E-1,5.823808E-1,2.8348684E-1,1.1755686E0,2.539243E-1,8.5700065E-2,7.028123E-1,2.5098E0,0E0,0E0,0E0,0E0,0E0,0E0,0E0,0E0,0E0,0E0,0E0,0E0,0E0,0E0,0E0,0E0,0E0,0E0],"parents":[2147483647,0,0,1,1,2,2,3,3,4,4,5,5,6,6,8,8,9,9,10,10,12,12,13,13,14,14,16,16,19,19,20,20,21,21,22,22,23,23,24,24,25,25,26,26],"right_children":[2,4,6,8,10,12,14,-1,16,18,20,-1,22,24,26,-1,28,-1,-1,30,32,34,36,38,40,42,44,-1,-1,-1,-1,-1,-1,-1,-1,-1,-1,-1,-1,-1,-1,-1,-1,-1,-1],"split_conditions":[4.48E0,3.6647832E0,3.3789628E0,8.536367E0,2.1805145E1,6.7442474E0,2.8E0,-6.0218792E-2,2.8E0,1.1917894E1,6.0495954E0,-7.291665E-2,2.8E0,1.35E0,1.356561E1,-3.663371E-2,1.9054962E1,-3.4149867E-2,-1.73989E-2,2.8E0,2.8E0,1.35E0,1.35E0,5.576628E0,5.9078264E0,6.7442474E0,1.35E0,-3.0795995E-2,-1.5530522E-2,-1.8412255E-2,-6.054111E-3,-8.714914E-3,6.3026845E-3,-1.9438172E-2,-7.455654E-3,-1.9965435E-3,9.91563E-3,-8.119261E-3,1.8338136E-4,3.4718364E-3,1.2809773E-2,-3.1925183E-2,-4.368631E-3,1.550047E-2,2.8215168E-2],"split_indices":[2,12,12,0,0,0,7,0,7,0,12,0,7,6,0,0,0,0,0,7,7,6,6,12,12,0,6,0,0,0,0,0,0,0,0,0,0,0,0,0,0,0,0,0,0],"split_type":[0,0,0,0,0,0,0,0,0,0,0,0,0,0,0,0,0,0,0,0,0,0,0,0,0,0,0,0,0,0,0,0,0,0,0,0,0,0,0,0,0,0,0,0,0],"sum_hessian":[5.83E2,1.88E2,3.95E2,9.1E1,9.7E1,1.53E2,2.42E2,4E0,8.7E1,8E0,8.9E1,2E0,1.51E2,4.7E1,1.95E2,1.9E1,6.8E1,3E0,5E0,4.8E1,4.1E1,3.7E1,1.14E2,3.6E1,1.1E1,9E0,1.86E2,1.4E1,5.4E1,1.2E1,3.6E1,7E0,3.4E1,2.9E1,8E0,8.8E1,2.6E1,1.6E1,2E1,7E0,4E0,4E0,5E0,1.26E2,6E1],"tree_param":{"num_deleted":"0","num_feature":"17","num_nodes":"45","size_leaf_vector":"1"}},{"base_weights":[-3.788579E-3,-1.513126E-1,2.522689E-1,-3.988413E-1,-1.0284144E-2,-5.43756E-4,3.500268E-1,-7.394489E-1,-3.1945774E-1,-2.862606E-1,7.9664096E-2,-7.6984644E-2,2.0970267E-1,8.16542E-2,4.0563995E-1,-5.781004E-2,-5.982885E-1,-5.783369E-1,-2.3860732E-1,-5.7275515E-2,-2.504613E-1,8.290225E-3,2.738676E-1,-1.7833654E-2,-4.0098976E-2,8.980541E-2,1.7551348E-2,1.1912798E-2,2.1981335E-1,-2.2442238E-1,4.3399906E-1,-3.198624E-2,-1.3630593E-2,-3.3332273E-2,-1.736361E-2,-1.9138658E-2,-6.3910014E-3,-1.6478658E-2,-6.562331E-3,-2.3361271E-2,1.7642345E-3,-5.73228E-3,1.5148136E-2,-8.77978E-3,8.6756574E-4,-6.0629486E-3,6.3365116E-3,-2.2942463E-3,2.9059432E-3,4.3268385E-3,1.3601442E-2,-2.3611426E-2,8.768916E-4,1.7894639E-2,3.1486448E-2],"categories":[],"categories_nodes":[],"categories_segments":[],"categories_sizes":[],"default_left":[0,0,0,0,0,0,0,0,0,0,0,0,0,0,0,0,0,0,0,0,0,0,0,0,0,0,0,0,0,0,0,0,0,0,0,0,0,0,0,0,0,0,0,0,0,0,0,0,0,0,0,0,0,0,0],"id":19,"left_children":[1,3,5,7,9,11,13,15,17,19,21,23,25,27,29,-1,31,33,35,-1,37,39,41,-1,43,45,-1,47,49,51,53,-1,-1,-1,-1,-1,-1,-1,-1,-1,-1,-1,-1,-1,-1,-1,-1,-1,-1,-1,-1,-1,-1,-1,-1],"loss_changes":[2.1494164E1,1.25979E1,5.14079E0,3.3058395E0,5.7570553E0,9.643579E-1,2.205635E0,7.2015095E-1,2.1224976E0,1.466444E0,2.4234142E0,4.3962345E-1,2.3958611E-1,2.5753754E-1,2.3130302E0,0E0,9.549999E-2,2.786169E-1,1.2926998E0,0E0,4.848969E-1,1.6723675E0,5.6601405E-1,0E0,3.1441963E-1,9.330231E-2,0E0,5.3408284E-2,3.909141E-2,3.6803725E-1,1.5472832E0,0E0,0E0,0E0,0E0,0E0,0E0,0E0,0E0,0E0,0E0,0E0,0E0,0E0,0E0,0E0,0E0,0E0,0E0,0E0,0E0,0E0,0E0,0E0,0E0],"parents":[2147483647,0,0,1,1,2,2,3,3,4,4,5,5,6,6,7,7,8,8,9,9,10,10,11,11,12,12,13,13,14,14,16,16,17,17,18,18,20,20,21,21,22,22,24,24,25,25,27,27,28,28,29,29,30,30],"right_children":[2,4,6,8,10,12,14,16,18,20,22,24,26,28,30,-1,32,34,36,-1,38,40,42,-1,44,46,-1,48,50,52,54,-1,-1,-1,-1,-1,-1,-1,-1,-1,-1,-1,-1,-1,-1,-1,-1,-1,-1,-1,-1,-1,-1,-1,-1],"split_conditions":[5.2823963E0,4.48E0,4.48E0,2.1805145E1,2.8E0,7.5357423E0,2.8E0,8.536367E0,2.8E0,6.7442474E0,1.35E0,2E0,1.35E0,1.35E0,1.2452208E1,-5.781004E-2,2.06E0,1.35E0,2.011814E0,-5.7275515E-2,2.70064E0,2E0,1.356561E1,-1.7833654E-2,2.8E0,1.7458532E1,1.7551348E-2,6.695898E0,5.9078264E0,5.1813474E0,1.35E0,-3.198624E-2,-1.3630593E-2,-3.3332273E-2,-1.736361E-2,-1.9138658E-2,-6.3910014E-3,-1.6478658E-2,-6.562331E-3,-2.3361271E-2,1.7642345E-3,-5.73228E-3,1.5148136E-2,-8.77978E-3,8.6756574E-4,-6.0629486E-3,6.3365116E-3,-2.2942463E-3,2.9059432E-3,4.3268385E-3,1.3601442E-2,-2.3611426E-2,8.768916E-4,1.7894639E-2,3.1486448E-2],"split_indices":[12,2,2,0,7,12,7,0,7,0,6,3,6,6,0,0,2,6,12,0,12,3,0,0,7,0,0,12,12,0,6,0,0,0,0,0,0,0,0,0,0,0,0,0,0,0,0,0,0,0,0,0,0,0,0],"split_type":[0,0,0,0,0,0,0,0,0,0,0,0,0,0,0,0,0,0,0,0,0,0,0,0,0,0,0,0,0,0,0,0,0,0,0,0,0,0,0,0,0,0,0,0,0,0,0,0,0,0,0,0,0,0,0],"sum_hessian":[5.67E2,3.6E2,2.07E2,1.3E2,2.3E2,5.8E1,1.49E2,2.3E1,1.07E2,5.6E1,1.74E2,4.3E1,1.5E1,2.6E1,1.23E2,4E0,1.9E1,2.4E1,8.3E1,1E0,5.5E1,1.28E2,4.6E1,4E0,3.9E1,9E0,6E0,1.8E1,8E0,5E0,1.18E2,1.6E1,3E0,1.6E1,8E0,3.5E1,4.8E1,3.2E1,2.3E1,6E0,1.22E2,3E0,4.3E1,1.1E1,2.8E1,1E0,8E0,8E0,1E1,3E0,5E0,2E0,3E0,8.7E1,3.1E1],"tree_param":{"num_deleted":"0","num_feature":"17","num_nodes":"55","size_leaf_vector":"1"}},{"base_weights":[-1.6913952E-2,-2.8017122E-1,1.18519425E-1,-4.7207847E-1,-9.8586075E-2,-2.081927E-2,3.1884032E-1,-5.802043E-2,-4.2150638E-1,-4.8922396E-1,-6.500598E-2,-2.8346774E-1,6.8387926E-2,-5.2332985E-1,3.385167E-1,-6.376164E-1,-3.4336093E-1,-3.496727E-2,-1.5131295E-2,-2.6999962E-1,-4.1328248E-4,-5.7379574E-1,-1.868442E-1,-7.3343436E-3,2.6257905E-1,-6.38535E-3,-3.0631756E-2,6.563342E-2,4.0080228E-1,-3.4639504E-2,-1.8291308E-2,-2.8049713E-2,-1.3888173E-2,-1.7671356E-2,-7.3429043E-3,-2.6922938E-3,1.4007114E-2,-5.5843633E-2,-2.2305364E-2,-1.1336796E-2,-1.227479E-3,-2.2360077E-2,9.410814E-4,-5.5173277E-3,1.44946445E-2,-5.8724767E-5,9.968336E-3,1.6303657E-2,2.9671013E-2],"categories":[],"categories_nodes":[],"categories_segments":[],"categories_sizes":[],"default_left":[0,0,0,0,0,0,0,0,0,0,0,0,0,0,0,0,0,0,0,0,0,0,0,0,0,0,0,0,0,0,0,0,0,0,0,0,0,0,0,0,0,0,0,0,0,0,0,0,0],"id":20,"left_children":[1,3,5,7,9,11,13,-1,15,17,19,21,23,25,27,29,31,-1,-1,33,35,37,39,41,43,-1,-1,45,47,-1,-1,-1,-1,-1,-1,-1,-1,-1,-1,-1,-1,-1,-1,-1,-1,-1,-1,-1,-1],"loss_changes":[2.078373E1,6.8532667E0,1.0752932E1,2.8526669E0,1.319316E0,5.361456E0,2.7953548E0,0E0,1.3178768E0,1.02026105E-1,1.2710334E0,1.5198355E0,2.516411E0,6.3087106E-2,2.608181E0,9.146023E-2,8.292341E-1,0E0,0E0,1.8438435E-1,1.1244044E0,4.7257996E-1,2.8577328E-1,1.4350561E0,5.2091837E-1,0E0,0E0,2.6826745E-1,1.6201706E0,0E0,0E0,0E0,0E0,0E0,0E0,0E0,0E0,0E0,0E0,0E0,0E0,0E0,0E0,0E0,0E0,0E0,0E0,0E0,0E0],"parents":[2147483647,0,0,1,1,2,2,3,3,4,4,5,5,6,6,8,8,9,9,10,10,11,11,12,12,13,13,14,14,15,15,16,16,19,19,20,20,21,21,22,22,23,23,24,24,27,27,28,28],"right_children":[2,4,6,8,10,12,14,-1,16,18,20,22,24,26,28,30,32,-1,-1,34,36,38,40,42,44,-1,-1,46,48,-1,-1,-1,-1,-1,-1,-1,-1,-1,-1,-1,-1,-1,-1,-1,-1,-1,-1,-1,-1],"split_conditions":[4.48E0,3.6647832E0,5.250112E0,1E0,9.3E1,1E0,6.7442474E0,-5.802043E-2,1E0,7.785369E0,1E0,1.0111032E0,1.35E0,4.51E0,1E0,1.35E0,1.9054962E1,-3.496727E-2,-1.5131295E-2,5.801999E0,1.35E0,6.7442474E0,1.35E0,2E0,1.356561E1,-6.38535E-3,-3.0631756E-2,1.35E0,1.35E0,-3.4639504E-2,-1.8291308E-2,-2.8049713E-2,-1.3888173E-2,-1.7671356E-2,-7.3429043E-3,-2.6922938E-3,1.4007114E-2,-5.5843633E-2,-2.2305364E-2,-1.1336796E-2,-1.227479E-3,-2.2360077E-2,9.410814E-4,-5.5173277E-3,1.44946445E-2,-5.8724767E-5,9.968336E-3,1.6303657E-2,2.9671013E-2],"split_indices":[2,12,12,3,4,16,0,0,16,0,16,12,6,2,16,6,0,0,0,12,6,0,6,3,0,0,0,6,6,0,0,0,0,0,0,0,0,0,0,0,0,0,0,0,0,0,0,0,0],"split_type":[0,0,0,0,0,0,0,0,0,0,0,0,0,0,0,0,0,0,0,0,0,0,0,0,0,0,0,0,0,0,0,0,0,0,0,0,0,0,0,0,0,0,0,0,0,0,0,0,0],"sum_hessian":[5.81E2,1.97E2,3.84E2,9.5E1,1.02E2,2.27E2,1.57E2,5E0,9E1,7E0,9.5E1,5.7E1,1.7E2,3E0,1.54E2,2.2E1,6.8E1,2E0,5E0,2.2E1,7.3E1,1.3E1,4.4E1,1.23E2,4.7E1,1E0,2E0,2.9E1,1.25E2,1.7E1,5E0,1.4E1,5.4E1,1.2E1,1E1,6.2E1,1.1E1,1E0,1.2E1,3.5E1,9E0,6E0,1.17E2,3E0,4.4E1,2E1,9E0,9.2E1,3.3E1],"tree_param":{"num_deleted":"0","num_feature":"17","num_nodes":"49","size_leaf_vector":"1"}},{"base_weights":[-8.90108E-3,-7.4901515E-1,4.136153E-2,-1.2206938E0,-5.0250906E-1,-1.7204556E-1,1.6953482E-1,-6.5378346E-2,-2.6210938E-2,-6.604392E-1,-3.4266433E-1,-3.8656995E-1,-7.414692E-2,-5.6430094E-2,2.5575802E-1,-7.510543E-3,-3.4658406E-2,-7.7348076E-2,-3.7753236E-1,-5.845868E-1,-2.963767E-1,-3.0610394E-1,7.5187096E-3,-2.5982374E-1,4.8008547E-3,-1.288162E-2,3.2062027E-1,-5.5548786E-3,-2.462268E-4,-2.0152975E-2,-1.7801762E-3,-3.2945294E-2,-1.815266E-2,-2.1955367E-2,-9.878269E-3,-1.7413888E-2,-5.484462E-3,-3.4120649E-3,6.229366E-3,-1.6867062E-2,-7.5819427E-3,-2.1007962E-3,1.2509443E-2,-3.6880695E-3,8.069123E-3,1.225116E-2,2.4185669E-2],"categories":[],"categories_nodes":[],"categories_segments":[],"categories_sizes":[],"default_left":[0,0,0,0,0,0,0,0,0,0,0,0,0,0,0,0,0,0,0,0,0,0,0,0,0,0,0,0,0,0,0,0,0,0,0,0,0,0,0,0,0,0,0,0,0,0,0],"id":21,"left_children":[1,3,5,7,9,11,13,-1,-1,15,17,19,21,23,25,-1,-1,27,29,31,33,35,37,39,41,43,45,-1,-1,-1,-1,-1,-1,-1,-1,-1,-1,-1,-1,-1,-1,-1,-1,-1,-1,-1,-1],"loss_changes":[2.1644218E1,3.6886406E0,1.4936601E1,4.0607452E-2,4.3004322E-1,4.2766743E0,6.6582775E0,0E0,0E0,9.6268654E-2,1.0956442E-1,9.697685E-1,2.6921957E0,1.184376E0,4.3079987E0,0E0,0E0,6.7856703E-3,9.911966E-2,7.360172E-2,5.620041E-1,2.682891E-1,9.4862854E-1,1.3334286E-1,8.606443E-1,5.3175247E-1,2.33502E0,0E0,0E0,0E0,0E0,0E0,0E0,0E0,0E0,0E0,0E0,0E0,0E0,0E0,0E0,0E0,0E0,0E0,0E0,0E0,0E0],"parents":[2147483647,0,0,1,1,2,2,3,3,4,4,5,5,6,6,9,9,10,10,11,11,12,12,13,13,14,14,17,17,18,18,19,19,20,20,21,21,22,22,23,23,24,24,25,25,26,26],"right_children":[2,4,6,8,10,12,14,-1,-1,16,18,20,22,24,26,-1,-1,28,30,32,34,36,38,40,42,44,46,-1,-1,-1,-1,-1,-1,-1,-1,-1,-1,-1,-1,-1,-1,-1,-1,-1,-1,-1,-1],"split_conditions":[4.5E1,1E0,5.7E-1,2.8E1,2.807702E0,2.03E0,2.03E0,-6.5378346E-2,-2.6210938E-2,8.718832E0,3.4342923E0,1E0,1E0,1E0,1E0,-7.510543E-3,-3.4658406E-2,8.536367E0,4.47E0,2.253157E0,1.1616383E0,1.35E0,1.8174543E0,1.35E0,1.35E0,1.35E0,6.718513E0,-5.5548786E-3,-2.462268E-4,-2.0152975E-2,-1.7801762E-3,-3.2945294E-2,-1.815266E-2,-2.1955367E-2,-9.878269E-3,-1.7413888E-2,-5.484462E-3,-3.4120649E-3,6.229366E-3,-1.6867062E-2,-7.5819427E-3,-2.1007962E-3,1.2509443E-2,-3.6880695E-3,8.069123E-3,1.225116E-2,2.4185669E-2],"split_indices":[1,3,13,1,12,2,2,0,0,0,12,16,16,16,16,0,0,0,2,12,12,6,12,6,6,6,12,0,0,0,0,0,0,0,0,0,0,0,0,0,0,0,0,0,0,0,0],"split_type":[0,0,0,0,0,0,0,0,0,0,0,0,0,0,0,0,0,0,0,0,0,0,0,0,0,0,0,0,0,0,0,0,0,0,0,0,0,0,0,0,0,0,0,0,0,0,0],"sum_hessian":[5.8E2,3.6E1,5.44E2,1.1E1,2.5E1,2.04E2,3.4E2,9E0,2E0,1.1E1,1.4E1,6.3E1,1.41E2,9.4E1,2.46E2,1E0,1E1,2E0,1.2E1,1.8E1,4.5E1,3.6E1,1.05E2,2.1E1,7.3E1,4.8E1,1.98E2,1E0,1E0,1.1E1,1E0,1.2E1,6E0,1.7E1,2.8E1,2.9E1,7E0,6.4E1,4.1E1,1.1E1,1E1,6.2E1,1.1E1,3.6E1,1.2E1,1.37E2,6.1E1],"tree_param":{"num_deleted":"0","num_feature":"17","num_nodes":"47","size_leaf_vector":"1"}},{"base_weights":[-1.3454778E-2,-6.341185E-1,3.2802213E-2,-1.0678229E0,-3.8574883E-1,-9.1192074E-2,2.3405732E-1,-5.6791812E-2,-4.5912624E-3,-5.014103E-1,-1.7193127E-1,-3.249709E-1,-1.3523411E-2,1.2556632E-2,3.112085E-1,-3.0458784E-2,-1.5201363E-2,-2.2533438E-1,4.5588493E-2,-5.0908923E-1,-2.4144667E-1,-2.0593141E-1,8.62393E-2,-1.7340507E-1,6.981724E-2,5.993073E-2,3.7771648E-1,-1.7356754E-3,-1.224114E-2,4.934204E-3,-1.5150666E-3,-2.9149646E-2,-1.5646404E-2,-1.7451832E-2,-9.080776E-3,-2.0309731E-2,-6.9545554E-3,-4.9252226E-3,7.7879876E-3,3.9655804E-3,-1.00537045E-2,1.4318924E-3,1.3581154E-2,3.0496914E-4,9.156644E-3,1.5140752E-2,2.7913332E-2],"categories":[],"categories_nodes":[],"categories_segments":[],"categories_sizes":[],"default_left":[0,0,0,0,0,0,0,0,0,0,0,0,0,0,0,0,0,0,0,0,0,0,0,0,0,0,0,0,0,0,0,0,0,0,0,0,0,0,0,0,0,0,0,0,0,0,0],"id":22,"left_children":[1,3,5,7,9,11,13,-1,-1,15,17,19,21,23,25,-1,-1,27,29,31,33,35,37,39,41,43,45,-1,-1,-1,-1,-1,-1,-1,-1,-1,-1,-1,-1,-1,-1,-1,-1,-1,-1,-1,-1],"loss_changes":[1.6557781E1,3.8968487E0,1.3421902E1,8.250313E-1,5.815139E-1,6.0419827E0,3.4993458E0,0E0,0E0,1.7640209E-1,1.3805121E-1,1.1534843E0,4.8357406E0,5.8711374E-1,2.5175848E0,0E0,0E0,2.4935454E-2,1.50785E-2,1.7999125E-1,3.1640625E-1,1.0946681E0,2.1473587E0,1.06849015E-1,3.4125143E-1,2.1774356E-1,1.453764E0,0E0,0E0,0E0,0E0,0E0,0E0,0E0,0E0,0E0,0E0,0E0,0E0,0E0,0E0,0E0,0E0,0E0,0E0,0E0,0E0],"parents":[2147483647,0,0,1,1,2,2,3,3,4,4,5,5,6,6,9,9,10,10,11,11,12,12,13,13,14,14,17,17,18,18,19,19,20,20,21,21,22,22,23,23,24,24,25,25,26,26],"right_children":[2,4,6,8,10,12,14,-1,-1,16,18,20,22,24,26,-1,-1,28,30,32,34,36,38,40,42,44,46,-1,-1,-1,-1,-1,-1,-1,-1,-1,-1,-1,-1,-1,-1,-1,-1,-1,-1,-1,-1],"split_conditions":[2E0,5.4E1,5.250112E0,8.128889E0,3.5581706E0,2.8E0,4.48E0,-5.6791812E-2,-4.5912624E-3,2.06E0,7.878908E0,1.31E0,2.02E0,2.8E0,2.8E0,-3.0458784E-2,-1.5201363E-2,8.718832E0,1.08913965E1,1.35E0,1.6383146E0,1.2108936E0,2.4E-1,1.4037165E1,1.35E0,1.35E0,1.35E0,-1.7356754E-3,-1.224114E-2,4.934204E-3,-1.5150666E-3,-2.9149646E-2,-1.5646404E-2,-1.7451832E-2,-9.080776E-3,-2.0309731E-2,-6.9545554E-3,-4.9252226E-3,7.7879876E-3,3.9655804E-3,-1.00537045E-2,1.4318924E-3,1.3581154E-2,3.0496914E-4,9.156644E-3,1.5140752E-2,2.7913332E-2],"split_indices":[3,4,12,12,12,7,2,0,0,2,12,9,2,7,7,0,0,0,0,6,12,12,13,0,6,6,6,0,0,0,0,0,0,0,0,0,0,0,0,0,0,0,0,0,0,0,0],"split_type":[0,0,0,0,0,0,0,0,0,0,0,0,0,0,0,0,0,0,0,0,0,0,0,0,0,0,0,0,0,0,0,0,0,0,0,0,0,0,0,0,0,0,0,0,0,0,0],"sum_hessian":[5.75E2,3.9E1,5.36E2,1.3E1,2.6E1,3.32E2,2.04E2,1.2E1,1E0,1.6E1,1E1,8.2E1,2.5E2,5.3E1,1.51E2,9E0,7E0,8E0,2E0,2.4E1,5.8E1,8.5E1,1.65E2,1.2E1,4.1E1,3.2E1,1.19E2,1E0,7E0,1E0,1E0,1.6E1,8E0,1.9E1,3.9E1,2E1,6.5E1,4.5E1,1.2E2,1E0,1.1E1,3.5E1,6E0,2.3E1,9E0,8.6E1,3.3E1],"tree_param":{"num_deleted":"0","num_feature":"17","num_nodes":"47","size_leaf_vector":"1"}},{"base_weights":[-9.241328E-3,-6.103654E-1,3.832261E-2,-1.0793022E0,-4.091522E-1,-8.1297174E-2,2.3200038E-1,-5.8057126E-2,-4.476476E-3,-4.8013467E-1,-1.822913E-1,-2.7338493E-1,1.3810803E-2,-2.3204116E-3,2.9314196E-1,-2.5339246E-2,-6.6769044E-3,-2.2913194E-1,4.810846E-3,-4.4942883E-1,-1.7283428E-1,-2.0445567E-1,8.735967E-2,-1.6703431E-1,5.9519812E-2,9.180825E-2,3.6573127E-1,-4.4855042E-3,-1.3032711E-2,-3.171904E-2,-1.8188855E-2,-1.751737E-2,-5.951497E-3,-1.5215804E-2,-6.544482E-3,-4.2379345E-3,7.904611E-3,-1.2755289E-2,-1.822261E-3,5.456964E-4,9.12611E-3,2.2026727E-3,1.3631328E-2,1.438645E-2,2.4518883E-2],"categories":[],"categories_nodes":[],"categories_segments":[],"categories_sizes":[],"default_left":[0,0,0,0,0,0,0,0,0,0,0,0,0,0,0,0,0,0,0,0,0,0,0,0,0,0,0,0,0,0,0,0,0,0,0,0,0,0,0,0,0,0,0,0,0],"id":23,"left_children":[1,3,5,7,9,11,13,-1,-1,15,17,19,21,23,25,-1,-1,27,-1,29,31,33,35,37,39,41,43,-1,-1,-1,-1,-1,-1,-1,-1,-1,-1,-1,-1,-1,-1,-1,-1,-1,-1],"loss_changes":[1.6377914E1,3.5213652E0,1.2320906E1,8.68083E-1,4.116726E-1,6.0143027E0,2.909009E0,0E0,0E0,1.44773E-1,1.3945588E-1,1.8517685E0,3.5656302E0,4.4793746E-1,2.3193855E0,0E0,0E0,1.1775851E-2,0E0,3.8704252E-1,6.364176E-1,3.7156272E-1,2.0343447E0,1.2871668E-1,1.893244E-1,3.6792728E-1,1.0061836E0,0E0,0E0,0E0,0E0,0E0,0E0,0E0,0E0,0E0,0E0,0E0,0E0,0E0,0E0,0E0,0E0,0E0,0E0],"parents":[2147483647,0,0,1,1,2,2,3,3,4,4,5,5,6,6,9,9,10,10,11,11,12,12,13,13,14,14,17,17,19,19,20,20,21,21,22,22,23,23,24,24,25,25,26,26],"right_children":[2,4,6,8,10,12,14,-1,-1,16,18,20,22,24,26,-1,-1,28,-1,30,32,34,36,38,40,42,44,-1,-1,-1,-1,-1,-1,-1,-1,-1,-1,-1,-1,-1,-1,-1,-1,-1,-1],"split_conditions":[1.06E2,1E0,5.292352E0,8.128889E0,4.51E0,2.03E0,2.8E0,-5.8057126E-2,-4.476476E-3,6.858845E0,6.38419E0,1.7123808E0,2.8E0,2.03E0,2.03E0,-2.5339246E-2,-6.6769044E-3,8.718832E0,4.810846E-3,2.8E0,2.8E0,1.757915E0,1.504512E0,1.35E0,1.35E0,1.35E0,1.27E0,-4.4855042E-3,-1.3032711E-2,-3.171904E-2,-1.8188855E-2,-1.751737E-2,-5.951497E-3,-1.5215804E-2,-6.544482E-3,-4.2379345E-3,7.904611E-3,-1.2755289E-2,-1.822261E-3,5.456964E-4,9.12611E-3,2.2026727E-3,1.3631328E-2,1.438645E-2,2.4518883E-2],"split_indices":[4,3,12,12,2,2,7,0,0,12,12,12,7,2,2,0,0,0,0,7,7,12,12,6,6,6,13,0,0,0,0,0,0,0,0,0,0,0,0,0,0,0,0,0,0],"split_type":[0,0,0,0,0,0,0,0,0,0,0,0,0,0,0,0,0,0,0,0,0,0,0,0,0,0,0,0,0,0,0,0,0,0,0,0,0,0,0,0,0,0,0,0,0],"sum_hessian":[5.71E2,4.1E1,5.3E2,1.1E1,3E1,3.28E2,2.02E2,1E1,1E0,2.2E1,8E0,1.08E2,2.2E2,4.2E1,1.6E2,2E1,2E0,7E0,1E0,3.8E1,7E1,5.5E1,1.65E2,1.1E1,3.1E1,4.3E1,1.17E2,2E0,5E0,1E1,2.8E1,1.5E1,5.5E1,2.2E1,3.3E1,4.8E1,1.17E2,6E0,5E0,2.3E1,8E0,3.5E1,8E0,7.4E1,4.3E1],"tree_param":{"num_deleted":"0","num_feature":"17","num_nodes":"45","size_leaf_vector":"1"}},{"base_weights":[-7.437918E-3,-6.337885E-1,3.243428E-2,-1.001296E0,-4.2362687E-1,-8.159408E-2,2.1461909E-1,-1.0764519E0,-4.364562E-3,-5.469491E-1,-2.772043E-1,-1.4818424E-1,1.3943914E-1,3.3586536E-2,2.7938983E-1,-5.861352E-2,-2.150894E-2,-1.2277049E-2,-3.1006807E-2,-3.2215938E-1,-1.9967556E-2,-3.258831E-1,-8.759082E-2,-1.3192017E-1,2.1597186E-1,-1.2863605E-1,7.517533E-2,5.2299723E-2,3.3528978E-1,-1.7536068E-2,-6.4543486E-3,-1.580143E-3,8.2576276E-5,-2.6432548E-2,-1.2237314E-2,-1.1074181E-2,-4.7317943E-5,-1.2585751E-2,-1.6401963E-3,4.486527E-3,1.4667096E-2,-9.282994E-3,-5.8353425E-4,6.1429397E-4,9.616259E-3,-7.660188E-4,7.016708E-3,1.3349669E-2,2.5164038E-2],"categories":[],"categories_nodes":[],"categories_segments":[],"categories_sizes":[],"default_left":[0,0,0,0,0,0,0,0,0,0,0,0,0,0,0,0,0,0,0,0,0,0,0,0,0,0,0,0,0,0,0,0,0,0,0,0,0,0,0,0,0,0,0,0,0,0,0,0,0],"id":24,"left_children":[1,3,5,7,9,11,13,15,-1,17,19,21,23,25,27,-1,-1,-1,-1,29,31,33,35,37,39,41,43,45,47,-1,-1,-1,-1,-1,-1,-1,-1,-1,-1,-1,-1,-1,-1,-1,-1,-1,-1,-1,-1],"loss_changes":[1.4605358E1,2.2790813E0,1.1443341E1,7.303486E-1,2.8175545E-1,5.0102806E0,2.4764462E0,1.7688942E-1,0E0,1.124413E-1,1.4390063E-1,2.7817416E0,1.6691525E0,3.9422876E-1,1.96278E0,0E0,0E0,0E0,0E0,1.5386224E-2,8.0682675E-4,9.5644236E-1,2.2735996E0,2.0546782E-1,5.792506E-1,7.787098E-2,3.3654162E-1,1.9264269E-1,1.2997751E0,0E0,0E0,0E0,0E0,0E0,0E0,0E0,0E0,0E0,0E0,0E0,0E0,0E0,0E0,0E0,0E0,0E0,0E0,0E0,0E0],"parents":[2147483647,0,0,1,1,2,2,3,3,4,4,5,5,6,6,7,7,9,9,10,10,11,11,12,12,13,13,14,14,19,19,20,20,21,21,22,22,23,23,24,24,25,25,26,26,27,27,28,28],"right_children":[2,4,6,8,10,12,14,16,-1,18,20,22,24,26,28,-1,-1,-1,-1,30,32,34,36,38,40,42,44,46,48,-1,-1,-1,-1,-1,-1,-1,-1,-1,-1,-1,-1,-1,-1,-1,-1,-1,-1,-1,-1],"split_conditions":[4.5E1,1E0,5.2823963E0,8.128889E0,2.807702E0,1.35E0,4.48E0,2.8E1,-4.364562E-3,9.770499E0,3.8E1,2.8E0,2.8E0,2.8E0,2.8E0,-5.861352E-2,-2.150894E-2,-1.2277049E-2,-3.1006807E-2,6.858845E0,8.718832E0,2.03E0,4.47E0,2.03E0,2.4385855E0,1.35E0,7.469491E0,1.29E0,1.35E0,-1.7536068E-2,-6.4543486E-3,-1.580143E-3,8.2576276E-5,-2.6432548E-2,-1.2237314E-2,-1.1074181E-2,-4.7317943E-5,-1.2585751E-2,-1.6401963E-3,4.486527E-3,1.4667096E-2,-9.282994E-3,-5.8353425E-4,6.1429397E-4,9.616259E-3,-7.660188E-4,7.016708E-3,1.3349669E-2,2.5164038E-2],"split_indices":[1,3,12,12,12,6,2,1,0,0,1,7,7,7,7,0,0,0,0,12,0,2,2,2,12,6,12,13,6,0,0,0,0,0,0,0,0,0,0,0,0,0,0,0,0,0,0,0,0],"split_type":[0,0,0,0,0,0,0,0,0,0,0,0,0,0,0,0,0,0,0,0,0,0,0,0,0,0,0,0,0,0,0,0,0,0,0,0,0,0,0,0,0,0,0,0,0,0,0,0,0],"sum_hessian":[5.83E2,3.4E1,5.49E2,1.1E1,2.3E1,3.38E2,2.11E2,1E1,1E0,1.1E1,1.2E1,2.6E2,7.8E1,5.6E1,1.55E2,8E0,2E0,3E0,8E0,1E1,2E0,6.5E1,1.95E2,1.7E1,6.1E1,1.1E1,4.5E1,3.1E1,1.24E2,8E0,2E0,1E0,1E0,1.7E1,4.8E1,7.6E1,1.19E2,7E0,1E1,2.4E1,3.7E1,7E0,4E0,3E1,1.5E1,1.8E1,1.3E1,9E1,3.4E1],"tree_param":{"num_deleted":"0","num_feature":"17","num_nodes":"49","size_leaf_vector":"1"}},{"base_weights":[-6.08736E-3,-5.764683E-1,3.160035E-2,-5.1915396E-2,-4.2918608E-1,-1.7868894E-1,1.2258758E-1,-4.5926353E-1,-1.2638605E-1,-3.468263E-1,-9.8246746E-2,-5.776828E-2,1.9694783E-1,-2.4096875E-2,-6.2391995E-3,-7.398645E-3,-1.540637E-3,-2.550489E-2,-2.810106E-1,-2.7038455E-1,-2.6903605E-2,-2.4954528E-1,-2.6297243E-3,-2.0077944E-2,2.5004664E-1,-1.54658435E-2,-1.0501718E-3,-1.5600944E-2,-5.0637457E-3,-3.4418348E-3,5.6776837E-3,-1.6410692E-2,-6.8484927E-3,-2.5595592E-3,1.0954814E-2,-3.746525E-3,5.7440014E-3,9.217808E-3,1.9718166E-2],"categories":[],"categories_nodes":[],"categories_segments":[],"categories_sizes":[],"default_left":[0,0,0,0,0,0,0,0,0,0,0,0,0,0,0,0,0,0,0,0,0,0,0,0,0,0,0,0,0,0,0,0,0,0,0,0,0,0,0],"id":25,"left_children":[1,3,5,-1,7,9,11,13,15,17,19,21,23,-1,-1,-1,-1,-1,25,27,29,31,33,35,37,-1,-1,-1,-1,-1,-1,-1,-1,-1,-1,-1,-1,-1,-1],"loss_changes":[1.2486101E1,2.0031204E0,1.0449738E1,0E0,2.0607185E-1,2.197606E0,5.121085E0,1.370449E-1,3.693059E-3,4.261856E-1,1.3804617E0,1.183666E0,3.1164503E0,0E0,0E0,0E0,0E0,0E0,2.878964E-1,2.0074582E-1,4.8489115E-1,1.7644835E-1,9.587415E-1,4.0835863E-1,1.9845066E0,0E0,0E0,0E0,0E0,0E0,0E0,0E0,0E0,0E0,0E0,0E0,0E0,0E0,0E0],"parents":[2147483647,0,0,1,1,2,2,4,4,5,5,6,6,7,7,8,8,9,9,10,10,11,11,12,12,18,18,19,19,20,20,21,21,22,22,23,23,24,24],"right_children":[2,4,6,-1,8,10,12,14,16,18,20,22,24,-1,-1,-1,-1,-1,26,28,30,32,34,36,38,-1,-1,-1,-1,-1,-1,-1,-1,-1,-1,-1,-1,-1,-1],"split_conditions":[4.5E1,2E1,4.4E-1,-5.1915396E-2,1.35E0,2.02E0,2.03E0,6.858845E0,3.8E1,2.8E0,2.8E0,2.8E0,2.8E0,-2.4096875E-2,-6.2391995E-3,-7.398645E-3,-1.540637E-3,-2.550489E-2,1.35E0,1.35E0,1.35E0,1.35E0,1.35E0,6.6494136E0,1.35E0,-1.54658435E-2,-1.0501718E-3,-1.5600944E-2,-5.0637457E-3,-3.4418348E-3,5.6776837E-3,-1.6410692E-2,-6.8484927E-3,-2.5595592E-3,1.0954814E-2,-3.746525E-3,5.7440014E-3,9.217808E-3,1.9718166E-2],"split_indices":[1,1,13,0,6,2,2,12,1,7,7,7,7,0,0,0,0,0,6,6,6,6,6,12,6,0,0,0,0,0,0,0,0,0,0,0,0,0,0],"split_type":[0,0,0,0,0,0,0,0,0,0,0,0,0,0,0,0,0,0,0,0,0,0,0,0,0,0,0,0,0,0,0,0,0,0,0,0,0,0,0],"sum_hessian":[5.79E2,3.5E1,5.44E2,7E0,2.8E1,1.64E2,3.8E2,2.5E1,3E0,5.2E1,1.12E2,1.11E2,2.69E2,2.3E1,2E0,2E0,1E0,1.3E1,3.9E1,3.2E1,8E1,2.4E1,8.7E1,5.3E1,2.16E2,3.5E1,4E0,2.5E1,7E0,6.2E1,1.8E1,1.3E1,1.1E1,7.2E1,1.5E1,3.8E1,1.5E1,1.5E2,6.6E1],"tree_param":{"num_deleted":"0","num_feature":"17","num_nodes":"39","size_leaf_vector":"1"}},{"base_weights":[-1.1652647E-2,-5.8244586E-1,2.7478836E-2,-9.135882E-1,-3.8695395E-1,-7.852943E-2,1.9574328E-1,-9.761523E-1,-4.0704845E-3,-5.200773E-1,-2.6353323E-1,-2.4368496E-1,1.1144486E-5,-4.3715034E-3,2.4313359E-1,-5.257252E-2,-1.9988736E-2,-5.3999065E-3,-2.7524268E-2,-4.823367E-2,-2.9294598E-1,-4.1285026E-1,-1.7549722E-1,-6.0216207E-2,1.7550099E-1,-1.4033335E-1,4.401404E-2,1.828617E-1,4.154916E-1,-4.3004635E-3,6.829381E-4,-1.5617554E-2,-1.5021205E-3,-2.4118286E-2,-1.2446335E-2,-1.7444937E-2,-5.8830897E-3,-1.1157402E-2,-3.141882E-4,1.3714326E-3,1.2346775E-2,-1.1427232E-2,-1.4366587E-3,3.8492383E-4,7.372949E-3,1.7082196E-3,1.2065579E-2,1.2709073E-2,2.2535771E-2],"categories":[],"categories_nodes":[],"categories_segments":[],"categories_sizes":[],"default_left":[0,0,0,0,0,0,0,0,0,0,0,0,0,0,0,0,0,0,0,0,0,0,0,0,0,0,0,0,0,0,0,0,0,0,0,0,0,0,0,0,0,0,0,0,0,0,0,0,0],"id":26,"left_children":[1,3,5,7,9,11,13,15,-1,17,19,21,23,25,27,-1,-1,-1,-1,29,31,33,35,37,39,41,43,45,47,-1,-1,-1,-1,-1,-1,-1,-1,-1,-1,-1,-1,-1,-1,-1,-1,-1,-1,-1,-1],"loss_changes":[1.2881531E1,2.0417032E0,9.64758E0,5.973692E-1,2.7369642E-1,4.3065114E0,1.9831152E0,1.004591E-1,0E0,7.8384876E-2,8.085847E-2,1.1617904E0,2.3992271E0,2.7589875E-1,1.6796522E0,0E0,0E0,0E0,0E0,8.18885E-3,5.6937814E-2,2.2178316E-1,7.411907E-1,1.4836535E0,6.0672045E-1,1.0172151E-1,1.1532128E-1,1.0955563E0,1.2976122E-1,0E0,0E0,0E0,0E0,0E0,0E0,0E0,0E0,0E0,0E0,0E0,0E0,0E0,0E0,0E0,0E0,0E0,0E0,0E0,0E0],"parents":[2147483647,0,0,1,1,2,2,3,3,4,4,5,5,6,6,7,7,9,9,10,10,11,11,12,12,13,13,14,14,19,19,20,20,21,21,22,22,23,23,24,24,25,25,26,26,27,27,28,28],"right_children":[2,4,6,8,10,12,14,16,-1,18,20,22,24,26,28,-1,-1,-1,-1,30,32,34,36,38,40,42,44,46,48,-1,-1,-1,-1,-1,-1,-1,-1,-1,-1,-1,-1,-1,-1,-1,-1,-1,-1,-1,-1],"split_conditions":[4.5E1,1E0,5.2823963E0,8.128889E0,2.807702E0,2.03E0,2.8E0,2.8E1,-4.0704845E-3,8.718832E0,3.4342923E0,2.8E0,1.35E0,2.03E0,1.35E0,-5.257252E-2,-1.9988736E-2,-5.3999065E-3,-2.7524268E-2,8.536367E0,4.47E0,1.35E0,1.0434424E0,2.8E0,1.898242E0,1.35E0,1.35E0,2.03E0,4.49E0,-4.3004635E-3,6.829381E-4,-1.5617554E-2,-1.5021205E-3,-2.4118286E-2,-1.2446335E-2,-1.7444937E-2,-5.8830897E-3,-1.1157402E-2,-3.141882E-4,1.3714326E-3,1.2346775E-2,-1.1427232E-2,-1.4366587E-3,3.8492383E-4,7.372949E-3,1.7082196E-3,1.2065579E-2,1.2709073E-2,2.2535771E-2],"split_indices":[1,3,12,12,12,2,7,1,0,0,12,7,6,2,6,0,0,0,0,0,2,6,12,7,12,6,6,2,2,0,0,0,0,0,0,0,0,0,0,0,0,0,0,0,0,0,0,0,0],"split_type":[0,0,0,0,0,0,0,0,0,0,0,0,0,0,0,0,0,0,0,0,0,0,0,0,0,0,0,0,0,0,0,0,0,0,0,0,0,0,0,0,0,0,0,0,0,0,0,0,0],"sum_hessian":[5.75E2,3.6E1,5.39E2,1.2E1,2.4E1,3.31E2,2.08E2,1.1E1,1E0,1E1,1.4E1,1.06E2,2.25E2,4E1,1.68E2,9E0,2E0,1E0,9E0,2E0,1.2E1,2.9E1,7.7E1,1.68E2,5.7E1,1E1,3E1,1.26E2,4.2E1,1E0,1E0,1.1E1,1E0,1.9E1,1E1,1.8E1,5.9E1,4.1E1,1.27E2,1.9E1,3.8E1,5E0,5E0,2.3E1,7E0,3.6E1,9E1,9E0,3.3E1],"tree_param":{"num_deleted":"0","num_feature":"17","num_nodes":"49","size_leaf_vector":"1"}},{"base_weights":[-5.5475067E-3,-1.6231167E-1,1.1406755E-1,-9.364847E-1,-1.2965034E-1,-6.1773792E-2,1.8893433E-1,-5.363514E-2,-2.3199094E-2,-2.791377E-1,-4.54513E-2,-1.1952458E-1,6.8761E-2,1.2484977E-1,3.3454522E-1,-3.7822902E-1,-1.7370234E-1,-2.1900137E-1,8.438734E-3,-2.6123205E-1,-7.1816064E-2,-3.0922186E-1,1.203028E-1,5.9405454E-2,2.702569E-1,-1.0085261E-1,3.5554594E-1,-2.7244074E-2,-1.5308333E-2,-1.5306531E-2,-6.2874495E-3,-1.7071577E-2,-8.050563E-3,-2.2315325E-3,8.111946E-3,-1.7195825E-2,-6.261125E-3,-4.750018E-3,6.2813796E-3,-2.2656227E-2,-5.5106403E-3,-3.6711835E-3,7.782493E-3,-1.7315503E-2,3.8735624E-3,2.3808393E-3,1.6236326E-2,-1.4645696E-3,-5.747128E-3,6.549783E-3,1.9632127E-2],"categories":[],"categories_nodes":[],"categories_segments":[],"categories_sizes":[],"default_left":[0,0,0,0,0,0,0,0,0,0,0,0,0,0,0,0,0,0,0,0,0,0,0,0,0,0,0,0,0,0,0,0,0,0,0,0,0,0,0,0,0,0,0,0,0,0,0,0,0,0,0],"id":27,"left_children":[1,3,5,7,9,11,13,-1,-1,15,17,19,21,23,25,27,29,31,33,35,37,39,41,43,45,47,49,-1,-1,-1,-1,-1,-1,-1,-1,-1,-1,-1,-1,-1,-1,-1,-1,-1,-1,-1,-1,-1,-1,-1,-1],"loss_changes":[1.0875549E1,6.2252502E0,4.3428483E0,1.459198E-1,3.0332923E0,7.5452876E-1,2.1137877E0,0E0,0E0,8.432536E-1,1.4608568E0,4.477244E-1,6.411397E-1,1.5255487E0,6.7591333E-1,3.6158752E-1,2.4092102E-1,2.0771599E-1,9.866906E-1,1.4811361E-1,2.54547E-1,6.4611614E-2,2.0316291E-1,8.5507107E-1,5.908935E-1,6.663501E-4,5.0667953E-1,0E0,0E0,0E0,0E0,0E0,0E0,0E0,0E0,0E0,0E0,0E0,0E0,0E0,0E0,0E0,0E0,0E0,0E0,0E0,0E0,0E0,0E0,0E0,0E0],"parents":[2147483647,0,0,1,1,2,2,3,3,4,4,5,5,6,6,9,9,10,10,11,11,12,12,13,13,14,14,15,15,16,16,17,17,18,18,19,19,20,20,21,21,22,22,23,23,24,24,25,25,26,26],"right_children":[2,4,6,8,10,12,14,-1,-1,16,18,20,22,24,26,28,30,32,34,36,38,40,42,44,46,48,50,-1,-1,-1,-1,-1,-1,-1,-1,-1,-1,-1,-1,-1,-1,-1,-1,-1,-1,-1,-1,-1,-1,-1,-1],"split_conditions":[3.6647832E0,2.9E1,4.47E0,9.770499E0,4.48E0,7.1162868E0,1.35E0,-5.363514E-2,-2.3199094E-2,1.7123808E0,2.8E0,2.8E0,1.7458532E1,6.8153152E0,1.356561E1,2.8E0,2.8E0,1.0111032E0,1.35E0,1.35E0,1.35E0,7.785369E0,2.8E0,1.1917894E1,2.8E0,4.104717E0,2.8E0,-2.7244074E-2,-1.5308333E-2,-1.5306531E-2,-6.2874495E-3,-1.7071577E-2,-8.050563E-3,-2.2315325E-3,8.111946E-3,-1.7195825E-2,-6.261125E-3,-4.750018E-3,6.2813796E-3,-2.2656227E-2,-5.5106403E-3,-3.6711835E-3,7.782493E-3,-1.7315503E-2,3.8735624E-3,2.3808393E-3,1.6236326E-2,-1.4645696E-3,-5.747128E-3,6.549783E-3,1.9632127E-2],"split_indices":[12,1,2,0,2,12,6,0,0,12,7,7,0,12,0,7,7,12,6,6,6,0,7,0,7,12,7,0,0,0,0,0,0,0,0,0,0,0,0,0,0,0,0,0,0,0,0,0,0,0,0],"split_type":[0,0,0,0,0,0,0,0,0,0,0,0,0,0,0,0,0,0,0,0,0,0,0,0,0,0,0,0,0,0,0,0,0,0,0,0,0,0,0,0,0,0,0,0,0,0,0,0,0,0,0],"sum_hessian":[5.78E2,2.5E2,3.28E2,9E0,2.41E2,9.8E1,2.3E2,6E0,3E0,8.6E1,1.55E2,6.8E1,3E1,1.61E2,6.9E1,4.3E1,4.3E1,3.6E1,1.19E2,1.6E1,5.2E1,3E0,2.7E1,1.12E2,4.9E1,3E0,6.6E1,1.1E1,3.2E1,1E1,3.3E1,1E1,2.6E1,8.9E1,3E1,9E0,7E0,4.7E1,5E0,1E0,2E0,4E0,2.3E1,4E0,1.08E2,1E1,3.9E1,1E0,2E0,1E1,5.6E1],"tree_param":{"num_deleted":"0","num_feature":"17","num_nodes":"51","size_leaf_vector":"1"}},{"base_weights":[-1.1940601E-3,-1.2072723E-1,1.3995163E-1,-6.4050174E-1,-8.994753E-2,-1.9249484E-2,2.0459667E-1,-4.717112E-2,-4.3566623E-1,-2.613599E-1,-3.239936E-2,-2.4756439E-2,3.0304934E-4,2.3201892E-2,2.497886E-1,-2.2789659E-2,-5.356753E-3,-4.292431E-1,-1.9861187E-1,-8.7824196E-2,1.5189861E-1,-4.8030317E-2,1.3320465E-1,-1.585223E-2,1.5080431E-1,1.9095549E-1,3.8450876E-1,-2.3285141E-2,-3.9778473E-3,-1.4782711E-2,-7.1705715E-3,-1.0076608E-2,-8.298568E-4,-4.6662213E-3,9.029104E-3,-7.90631E-3,-6.814264E-4,3.1462908E-3,1.2736655E-2,-2.772577E-3,2.4083853E-3,3.3392143E-3,1.0233174E-2,3.8386148E-3,1.3145226E-2,-2.7079583E-4,2.0160278E-2],"categories":[],"categories_nodes":[],"categories_segments":[],"categories_sizes":[],"default_left":[0,0,0,0,0,0,0,0,0,0,0,0,0,0,0,0,0,0,0,0,0,0,0,0,0,0,0,0,0,0,0,0,0,0,0,0,0,0,0,0,0,0,0,0,0,0,0],"id":28,"left_children":[1,3,5,7,9,11,13,-1,15,17,19,-1,21,23,25,-1,-1,27,29,31,33,35,37,39,41,43,45,-1,-1,-1,-1,-1,-1,-1,-1,-1,-1,-1,-1,-1,-1,-1,-1,-1,-1,-1,-1],"loss_changes":[9.566217E0,4.853929E0,2.6797438E0,6.438136E-1,2.8620925E0,7.0730317E-1,1.510757E0,0E0,3.0516386E-2,6.837535E-1,2.2503562E0,0E0,4.8174292E-1,1.9175978E-1,1.0996246E0,0E0,0E0,2.0518994E-1,2.52223E-1,1.3654002E0,3.7557888E-1,2.0615725E-1,1.5478829E-1,7.872534E-2,2.705893E-2,8.424301E-1,3.2295847E-1,0E0,0E0,0E0,0E0,0E0,0E0,0E0,0E0,0E0,0E0,0E0,0E0,0E0,0E0,0E0,0E0,0E0,0E0,0E0,0E0],"parents":[2147483647,0,0,1,1,2,2,3,3,4,4,5,5,6,6,8,8,9,9,10,10,12,12,13,13,14,14,17,17,18,18,19,19,20,20,21,21,22,22,23,23,24,24,25,25,26,26],"right_children":[2,4,6,8,10,12,14,-1,16,18,20,-1,22,24,26,-1,-1,28,30,32,34,36,38,40,42,44,46,-1,-1,-1,-1,-1,-1,-1,-1,-1,-1,-1,-1,-1,-1,-1,-1,-1,-1,-1,-1],"split_conditions":[4.4382024E0,3.7E1,4.47E0,2E1,2.8E0,7.785369E0,2.8E0,-4.717112E-2,1.35E0,1.2108936E0,1.35E0,-2.4756439E-2,7.5357423E0,1.35E0,1.27E0,-2.2789659E-2,-5.356753E-3,1.35E0,2.03E0,4.48E0,7.3E1,2.8E0,1.35E0,6.6494136E0,5.9078264E0,1E0,1.08913965E1,-2.3285141E-2,-3.9778473E-3,-1.4782711E-2,-7.1705715E-3,-1.0076608E-2,-8.298568E-4,-4.6662213E-3,9.029104E-3,-7.90631E-3,-6.814264E-4,3.1462908E-3,1.2736655E-2,-2.772577E-3,2.4083853E-3,3.3392143E-3,1.0233174E-2,3.8386148E-3,1.3145226E-2,-2.7079583E-4,2.0160278E-2],"split_indices":[12,1,2,1,7,0,7,0,6,12,6,0,12,6,13,0,0,6,2,2,1,7,6,12,12,6,0,0,0,0,0,0,0,0,0,0,0,0,0,0,0,0,0,0,0,0,0],"split_type":[0,0,0,0,0,0,0,0,0,0,0,0,0,0,0,0,0,0,0,0,0,0,0,0,0,0,0,0,0,0,0,0,0,0,0,0,0,0,0,0,0,0,0,0,0,0,0],"sum_hessian":[5.65E2,3.06E2,2.59E2,1.6E1,2.9E2,7.5E1,1.84E2,5E0,1.1E1,7.2E1,2.18E2,2E0,7.3E1,3.7E1,1.47E2,1E1,1E0,1.8E1,5.4E1,1.68E2,5E1,5.4E1,1.9E1,2.9E1,8E0,1.04E2,4.3E1,1.6E1,2E0,1.8E1,3.6E1,6.4E1,1.04E2,5E0,4.5E1,1.2E1,4.2E1,1.3E1,6E0,1.8E1,1.1E1,4E0,4E0,4.1E1,6.3E1,2E0,4.1E1],"tree_param":{"num_deleted":"0","num_feature":"17","num_nodes":"47","size_leaf_vector":"1"}},{"base_weights":[-7.4231313E-3,-5.356371E-1,2.7545847E-2,-8.15882E-1,-3.615195E-1,-5.0844945E-2,1.9738434E-1,-8.711446E-1,-3.8182735E-3,-4.425537E-1,-2.2551966E-1,-1.9327787E-1,1.8312437E-2,1.4246419E-1,3.539142E-1,-4.6664428E-2,-1.8680818E-2,-9.597284E-3,-4.934517E-1,1.0749698E-3,-2.523715E-1,-3.7708026E-1,-1.3707003E-1,-9.871383E-2,8.6219504E-2,-3.1288836E-2,1.8662797E-1,1.6009194E-1,3.9253882E-1,-2.6095277E-2,-5.2228332E-3,-1.3729239E-2,-1.3113022E-3,-2.537914E-2,-1.54704405E-2,-1.413842E-2,-4.1918606E-3,-1.137952E-2,-2.655869E-3,-3.8069487E-3,6.698493E-3,-7.944063E-3,6.3659577E-4,2.7567882E-3,1.1749162E-2,2.333045E-3,9.2917485E-3,1.1247308E-2,2.0927956E-2],"categories":[],"categories_nodes":[],"categories_segments":[],"categories_sizes":[],"default_left":[0,0,0,0,0,0,0,0,0,0,0,0,0,0,0,0,0,0,0,0,0,0,0,0,0,0,0,0,0,0,0,0,0,0,0,0,0,0,0,0,0,0,0,0,0,0,0,0,0],"id":29,"left_children":[1,3,5,7,9,11,13,15,-1,17,19,21,23,25,27,-1,-1,-1,29,-1,31,33,35,37,39,41,43,45,47,-1,-1,-1,-1,-1,-1,-1,-1,-1,-1,-1,-1,-1,-1,-1,-1,-1,-1,-1,-1],"loss_changes":[1.0709523E1,1.4616823E0,7.2527294E0,4.647541E-1,1.6469073E-1,3.677697E0,1.4282017E0,2.2328377E-2,0E0,8.386016E-2,7.8387916E-2,1.2087121E0,2.0111325E0,9.9573255E-1,2.6655483E-1,0E0,0E0,0E0,6.7236185E-2,0E0,4.3033063E-2,9.02257E-2,7.131071E-1,5.344082E-1,1.2506281E0,1.5367414E-1,6.4195275E-1,1.7609283E-2,6.283665E-2,0E0,0E0,0E0,0E0,0E0,0E0,0E0,0E0,0E0,0E0,0E0,0E0,0E0,0E0,0E0,0E0,0E0,0E0,0E0,0E0],"parents":[2147483647,0,0,1,1,2,2,3,3,4,4,5,5,6,6,7,7,9,9,10,10,11,11,12,12,13,13,14,14,18,18,20,20,21,21,22,22,23,23,24,24,25,25,26,26,27,27,28,28],"right_children":[2,4,6,8,10,12,14,16,-1,18,20,22,24,26,28,-1,-1,-1,30,-1,32,34,36,38,40,42,44,46,48,-1,-1,-1,-1,-1,-1,-1,-1,-1,-1,-1,-1,-1,-1,-1,-1,-1,-1,-1,-1],"split_conditions":[4.5E1,1E0,5.801999E0,8.128889E0,2.807702E0,4.47E0,1.35E0,2.8E1,-3.8182735E-3,9.770499E0,3.4342923E0,1.2108936E0,1.9768445E0,2.8E0,2.8E0,-4.6664428E-2,-1.8680818E-2,-9.597284E-3,1.35E0,1.0749698E-3,4.47E0,2.8E0,2.8E0,2.8E0,2.8E0,2.02E0,2.02E0,6.935414E0,2.02E0,-2.6095277E-2,-5.2228332E-3,-1.3729239E-2,-1.3113022E-3,-2.537914E-2,-1.54704405E-2,-1.413842E-2,-4.1918606E-3,-1.137952E-2,-2.655869E-3,-3.8069487E-3,6.698493E-3,-7.944063E-3,6.3659577E-4,2.7567882E-3,1.1749162E-2,2.333045E-3,9.2917485E-3,1.1247308E-2,2.0927956E-2],"split_indices":[1,3,12,12,12,2,6,1,0,0,12,12,12,7,7,0,0,0,6,0,2,7,7,7,7,2,2,12,2,0,0,0,0,0,0,0,0,0,0,0,0,0,0,0,0,0,0,0,0],"split_type":[0,0,0,0,0,0,0,0,0,0,0,0,0,0,0,0,0,0,0,0,0,0,0,0,0,0,0,0,0,0,0,0,0,0,0,0,0,0,0,0,0,0,0,0,0,0,0,0,0],"sum_hessian":[5.78E2,3.5E1,5.43E2,1.2E1,2.3E1,3.72E2,1.71E2,1.1E1,1E0,1.3E1,1E1,1.21E2,2.51E2,1.28E2,4.3E1,9E0,2E0,3E0,1E1,1E0,9E0,2.7E1,9.4E1,9.2E1,1.59E2,2.6E1,1.02E2,8E0,3.5E1,9E0,1E0,8E0,1E0,7E0,2E1,2.4E1,7E1,2.3E1,6.9E1,3.6E1,1.23E2,6E0,2E1,2.8E1,7.4E1,2E0,6E0,6E0,2.9E1],"tree_param":{"num_deleted":"0","num_feature":"17","num_nodes":"49","size_leaf_vector":"1"}},{"base_weights":[-1.05172135E-2,-4.5750865E-1,2.3190813E-2,-7.649011E-1,-2.874728E-1,-5.121785E-2,1.8860187E-1,-4.0614244E-2,-3.722811E-3,-3.681191E-1,-1.4926787E-1,-1.8887581E-1,1.8089399E-2,1.1894989E-2,2.330177E-1,-4.445339E-1,-9.772512E-3,-1.7422637E-1,3.1318904E-3,-3.7358063E-1,-1.3472822E-1,-1.3760225E-1,7.4377246E-2,-3.0002788E-2,1.3626665E-1,8.168514E-2,2.8722262E-1,-2.3430912E-2,-5.092263E-3,-1.2785196E-3,-9.326747E-3,-2.5252594E-2,-1.4786978E-2,-1.348074E-2,-4.27575E-3,-1.0726613E-2,-2.8312572E-3,-3.6339008E-3,5.903827E-3,-7.6036016E-3,6.05783E-4,9.3595387E-4,9.59603E-3,1.1837482E-3,8.25942E-3,1.1045913E-2,1.9617824E-2],"categories":[],"categories_nodes":[],"categories_segments":[],"categories_sizes":[],"default_left":[0,0,0,0,0,0,0,0,0,0,0,0,0,0,0,0,0,0,0,0,0,0,0,0,0,0,0,0,0,0,0,0,0,0,0,0,0,0,0,0,0,0,0,0,0,0,0],"id":30,"left_children":[1,3,5,7,9,11,13,-1,-1,15,17,19,21,23,25,27,-1,29,-1,31,33,35,37,39,41,43,45,-1,-1,-1,-1,-1,-1,-1,-1,-1,-1,-1,-1,-1,-1,-1,-1,-1,-1,-1,-1],"loss_changes":[8.8098545E0,1.9230881E0,6.70522E0,3.9754295E-1,2.5713134E-1,3.5907176E0,1.3236389E0,0E0,0E0,1.3742161E-1,7.4379295E-2,1.2098346E0,2.2098851E0,1.8646976E-1,1.0839396E0,4.3061018E-2,0E0,1.5357375E-2,0E0,1.3718438E-1,6.341262E-1,4.0523314E-1,1.1974306E0,1.4065935E-1,5.528529E-2,1.753186E-1,6.034336E-1,0E0,0E0,0E0,0E0,0E0,0E0,0E0,0E0,0E0,0E0,0E0,0E0,0E0,0E0,0E0,0E0,0E0,0E0,0E0,0E0],"parents":[2147483647,0,0,1,1,2,2,3,3,4,4,5,5,6,6,9,9,10,10,11,11,12,12,13,13,14,14,15,15,17,17,19,19,20,20,21,21,22,22,23,23,24,24,25,25,26,26],"right_children":[2,4,6,8,10,12,14,-1,-1,16,18,20,22,24,26,28,-1,30,-1,32,34,36,38,40,42,44,46,-1,-1,-1,-1,-1,-1,-1,-1,-1,-1,-1,-1,-1,-1,-1,-1,-1,-1,-1,-1],"split_conditions":[1.06E2,5.4E1,5.9078264E0,8.128889E0,3.5581706E0,1E0,2.8E0,-4.0614244E-2,-3.722811E-3,1E0,8.03376E0,1.2108936E0,2.8E0,1.35E0,1E0,1.35E0,-9.772512E-3,8.718832E0,3.1318904E-3,2.8E0,2.8E0,2.70064E0,1.3212533E0,1E0,1E0,7.469491E0,7.375781E0,-2.3430912E-2,-5.092263E-3,-1.2785196E-3,-9.326747E-3,-2.5252594E-2,-1.4786978E-2,-1.348074E-2,-4.27575E-3,-1.0726613E-2,-2.8312572E-3,-3.6339008E-3,5.903827E-3,-7.6036016E-3,6.05783E-4,9.3595387E-4,9.59603E-3,1.1837482E-3,8.25942E-3,1.1045913E-2,1.9617824E-2],"split_indices":[4,4,12,12,12,5,7,0,0,5,12,12,7,6,5,6,0,0,0,7,7,12,12,5,5,12,12,0,0,0,0,0,0,0,0,0,0,0,0,0,0,0,0,0,0,0,0],"split_type":[0,0,0,0,0,0,0,0,0,0,0,0,0,0,0,0,0,0,0,0,0,0,0,0,0,0,0,0,0,0,0,0,0,0,0,0,0,0,0,0,0,0,0,0,0,0,0],"sum_hessian":[5.83E2,4E1,5.43E2,1.3E1,2.7E1,3.75E2,1.68E2,1.2E1,1E0,1.6E1,1.1E1,1.25E2,2.5E2,3.4E1,1.34E2,1E1,6E0,1E1,1E0,2.7E1,9.8E1,6.6E1,1.84E2,2.6E1,8E0,3.6E1,9.8E1,9E0,1E0,1E0,9E0,8E0,1.9E1,2.5E1,7.3E1,3.3E1,3.3E1,4.2E1,1.42E2,6E0,2E1,3E0,5E0,2.2E1,1.4E1,6.2E1,3.6E1],"tree_param":{"num_deleted":"0","num_feature":"17","num_nodes":"47","size_leaf_vector":"1"}},{"base_weights":[-6.9435295E-3,-4.5872557E-1,2.389069E-2,-7.298231E-1,-2.885619E-1,-6.290763E-2,1.6017796E-1,-7.747949E-1,-3.629744E-3,-3.7904242E-1,-1.9039562E-1,-1.1083413E-1,9.744145E-2,1.09571904E-1,2.9384208E-1,-4.2736903E-2,-1.9061912E-2,-8.870924E-3,-4.2653725E-1,-3.8755417E-2,-2.1243937E-1,-2.0509057E-1,-4.789224E-2,-9.615455E-2,1.6034943E-1,8.499213E-2,3.2394162E-1,9.994548E-2,3.4646624E-1,-2.275148E-2,-4.96496E-3,-4.0616514E-3,1.1549949E-3,-1.1910649E-2,-2.7857146E-3,-1.5517059E-2,-7.162901E-3,-7.256062E-3,3.9321842E-4,-9.043662E-3,-1.2301326E-3,3.536895E-3,1.0906275E-2,-1.5570686E-3,5.8563678E-3,7.061434E-3,1.776212E-2,1.269108E-3,8.544139E-3,1.0850776E-2,1.8819828E-2],"categories":[],"categories_nodes":[],"categories_segments":[],"categories_sizes":[],"default_left":[0,0,0,0,0,0,0,0,0,0,0,0,0,0,0,0,0,0,0,0,0,0,0,0,0,0,0,0,0,0,0,0,0,0,0,0,0,0,0,0,0,0,0,0,0,0,0,0,0,0,0],"id":31,"left_children":[1,3,5,7,9,11,13,15,-1,17,19,21,23,25,27,-1,-1,-1,29,31,33,35,37,39,41,43,45,47,49,-1,-1,-1,-1,-1,-1,-1,-1,-1,-1,-1,-1,-1,-1,-1,-1,-1,-1,-1,-1,-1,-1],"loss_changes":[8.285585E0,1.5423765E0,6.5991106E0,3.5754824E-1,1.4988518E-1,2.6313744E0,1.4356375E0,8.314943E-2,0E0,3.923762E-2,3.856486E-2,1.5504725E0,9.775381E-1,8.102639E-1,5.673871E-1,0E0,0E0,0E0,3.8730025E-2,9.758873E-3,3.5200655E-2,6.3887215E-1,8.6310554E-1,1.16785675E-1,2.952144E-1,5.41052E-1,4.133451E-2,6.97131E-2,9.654331E-2,0E0,0E0,0E0,0E0,0E0,0E0,0E0,0E0,0E0,0E0,0E0,0E0,0E0,0E0,0E0,0E0,0E0,0E0,0E0,0E0,0E0,0E0],"parents":[2147483647,0,0,1,1,2,2,3,3,4,4,5,5,6,6,7,7,9,9,10,10,11,11,12,12,13,13,14,14,18,18,19,19,20,20,21,21,22,22,23,23,24,24,25,25,26,26,27,27,28,28],"right_children":[2,4,6,8,10,12,14,16,-1,18,20,22,24,26,28,-1,-1,-1,30,32,34,36,38,40,42,44,46,48,50,-1,-1,-1,-1,-1,-1,-1,-1,-1,-1,-1,-1,-1,-1,-1,-1,-1,-1,-1,-1,-1,-1],"split_conditions":[4.5E1,5.4E1,5.2823963E0,8.128889E0,2.807702E0,1.35E0,1.35E0,2.8E1,-3.629744E-3,9.770499E0,3.4342923E0,1.7177489E0,2.8E0,8.128889E0,2.8E0,-4.2736903E-2,-1.9061912E-2,-8.870924E-3,1.35E0,8.536367E0,2.02E0,2.02E0,4.49E0,2.03E0,2.4385855E0,2.8E0,7.7E1,6.935414E0,4.49E0,-2.275148E-2,-4.96496E-3,-4.0616514E-3,1.1549949E-3,-1.1910649E-2,-2.7857146E-3,-1.5517059E-2,-7.162901E-3,-7.256062E-3,3.9321842E-4,-9.043662E-3,-1.2301326E-3,3.536895E-3,1.0906275E-2,-1.5570686E-3,5.8563678E-3,7.061434E-3,1.776212E-2,1.269108E-3,8.544139E-3,1.0850776E-2,1.8819828E-2],"split_indices":[1,4,12,12,12,6,6,1,0,0,12,12,7,12,7,0,0,0,6,0,2,2,2,2,12,7,1,12,2,0,0,0,0,0,0,0,0,0,0,0,0,0,0,0,0,0,0,0,0,0,0],"split_type":[0,0,0,0,0,0,0,0,0,0,0,0,0,0,0,0,0,0,0,0,0,0,0,0,0,0,0,0,0,0,0,0,0,0,0,0,0,0,0,0,0,0,0,0,0,0,0,0,0,0,0],"sum_hessian":[5.93E2,3.7E1,5.56E2,1.3E1,2.4E1,3.4E2,2.16E2,1.2E1,1E0,1.1E1,1.3E1,2.62E2,7.8E1,1.58E2,5.8E1,9E0,3E0,3E0,8E0,2E0,1.1E1,1.04E2,1.58E2,1.9E1,5.9E1,1.43E2,1.5E1,1.3E1,4.5E1,7E0,1E0,1E0,1E0,9E0,2E0,3.7E1,6.7E1,5.7E1,1.01E2,8E0,1.1E1,2.4E1,3.5E1,3.1E1,1.12E2,3E0,1.2E1,7E0,6E0,1E1,3.5E1],"tree_param":{"num_deleted":"0","num_feature":"17","num_nodes":"51","size_leaf_vector":"1"}},{"base_weights":[-7.8103053E-3,-1.3652323E-1,9.094716E-2,-4.1096788E-2,-1.1014149E-1,-4.5609668E-2,1.5002103E-1,-2.3121996E-1,-4.057307E-2,-9.0249136E-2,7.5118154E-2,9.7639136E-2,2.7745897E-1,-2.7660984E-1,-6.533341E-2,-1.8501559E-1,1.04644215E-2,-2.0401274E-1,-5.1376518E-2,2.316773E-2,1.9560444E-1,4.600844E-2,2.1822788E-1,-9.6952796E-2,2.971394E-1,-1.9969225E-2,-1.1221163E-2,-4.662371E-3,6.1964197E-3,-1.0971651E-2,-2.1042612E-3,-3.553801E-3,4.809312E-3,-1.4659253E-2,-4.113216E-3,-3.5087836E-3,5.6922915E-3,-3.4975444E-4,7.278389E-3,1.05767455E-2,2.1022798E-3,-3.1446703E-3,4.1951556E-3,2.3248196E-3,1.2570589E-2,-1.1769176E-3,-5.6789084E-3,6.7758444E-3,1.6101392E-2],"categories":[],"categories_nodes":[],"categories_segments":[],"categories_sizes":[],"default_left":[0,0,0,0,0,0,0,0,0,0,0,0,0,0,0,0,0,0,0,0,0,0,0,0,0,0,0,0,0,0,0,0,0,0,0,0,0,0,0,0,0,0,0,0,0,0,0,0,0],"id":32,"left_children":[1,3,5,-1,7,9,11,13,15,17,19,21,23,25,27,29,31,33,35,37,39,41,43,45,47,-1,-1,-1,-1,-1,-1,-1,-1,-1,-1,-1,-1,-1,-1,-1,-1,-1,-1,-1,-1,-1,-1,-1,-1],"loss_changes":[7.23247E0,4.375818E0,2.6043975E0,0E0,2.003772E0,5.3492343E-1,1.4748831E0,6.3700104E-1,1.1298497E0,3.0792332E-1,1.6446976E-1,9.923587E-1,5.077672E-1,3.4605742E-1,1.1721708E-1,1.8753695E-1,8.0367315E-1,1.7129993E-1,1.788214E-1,7.485687E-2,1.0675997E-2,4.7573212E-1,2.618487E-1,2.2087246E-3,2.0575666E-1,0E0,0E0,0E0,0E0,0E0,0E0,0E0,0E0,0E0,0E0,0E0,0E0,0E0,0E0,0E0,0E0,0E0,0E0,0E0,0E0,0E0,0E0,0E0,0E0],"parents":[2147483647,0,0,1,1,2,2,4,4,5,5,6,6,7,7,8,8,9,9,10,10,11,11,12,12,13,13,14,14,15,15,16,16,17,17,18,18,19,19,20,20,21,21,22,22,23,23,24,24],"right_children":[2,4,6,-1,8,10,12,14,16,18,20,22,24,26,28,30,32,34,36,38,40,42,44,46,48,-1,-1,-1,-1,-1,-1,-1,-1,-1,-1,-1,-1,-1,-1,-1,-1,-1,-1,-1,-1,-1,-1,-1,-1],"split_conditions":[3.6647832E0,1E0,4.47E0,-4.1096788E-2,4.48E0,7.1162868E0,1.35E0,2.8288457E0,2.8E0,2.8E0,1.35E0,6.8075156E0,1.356561E1,2.8E0,1.35E0,1.35E0,1.8174543E0,1.35E0,1.35E0,8.128889E0,5.864032E1,2.8E0,2.8E0,4.104717E0,2.8E0,-1.9969225E-2,-1.1221163E-2,-4.662371E-3,6.1964197E-3,-1.0971651E-2,-2.1042612E-3,-3.553801E-3,4.809312E-3,-1.4659253E-2,-4.113216E-3,-3.5087836E-3,5.6922915E-3,-3.4975444E-4,7.278389E-3,1.05767455E-2,2.1022798E-3,-3.1446703E-3,4.1951556E-3,2.3248196E-3,1.2570589E-2,-1.1769176E-3,-5.6789084E-3,6.7758444E-3,1.6101392E-2],"split_indices":[12,3,2,0,2,12,6,12,7,7,6,12,0,7,6,6,12,6,6,12,0,7,7,12,7,0,0,0,0,0,0,0,0,0,0,0,0,0,0,0,0,0,0,0,0,0,0,0,0],"split_type":[0,0,0,0,0,0,0,0,0,0,0,0,0,0,0,0,0,0,0,0,0,0,0,0,0,0,0,0,0,0,0,0,0,0,0,0,0,0,0,0,0,0,0,0,0,0,0,0,0],"sum_hessian":[5.67E2,2.46E2,3.21E2,8E0,2.38E2,9.7E1,2.24E2,8.6E1,1.52E2,7.1E1,2.6E1,1.6E2,6.4E1,6.7E1,1.9E1,3.9E1,1.13E2,1.7E1,5.4E1,1.9E1,7E0,1.13E2,4.7E1,3E0,6.1E1,1.8E1,4.9E1,1.7E1,2E0,3.1E1,8E0,5.8E1,5.5E1,9E0,8E0,4.9E1,5E0,1.6E1,3E0,6E0,1E0,2.9E1,8.4E1,8E0,3.9E1,1E0,2E0,9E0,5.2E1],"tree_param":{"num_deleted":"0","num_feature":"17","num_nodes":"49","size_leaf_vector":"1"}},{"base_weights":[-3.9959834E-3,-4.2580247E-1,2.4859536E-2,-6.94686E-1,-2.8532535E-1,-4.2703703E-2,1.6521911E-1,-7.4548644E-1,-3.3970238E-3,-3.779233E-1,-1.7896117E-1,-2.0373397E-1,-5.009428E-4,1.1725504E-1,2.9437038E-1,-4.0359683E-2,-1.5593474E-2,-1.0570065E-2,-4.555744E-1,-3.7835438E-2,-1.9932918E-1,-3.52643E-1,-1.479109E-1,-1.09123245E-1,5.026476E-2,-1.9405695E-2,1.4997813E-1,1.15496054E-1,3.2810113E-1,-2.4729876E-2,-4.5603155E-3,-4.0803435E-3,1.2426854E-3,-1.11753205E-2,-2.6147685E-3,-1.8869517E-2,-4.330564E-3,-1.2840296E-2,-4.335266E-3,-1.1490809E-2,-3.4244296E-3,1.6507112E-4,8.218867E-3,-6.451229E-3,6.4190343E-4,2.3814114E-3,9.420301E-3,1.4390802E-3,8.955564E-3,9.964201E-3,1.7745787E-2],"categories":[],"categories_nodes":[],"categories_segments":[],"categories_sizes":[],"default_left":[0,0,0,0,0,0,0,0,0,0,0,0,0,0,0,0,0,0,0,0,0,0,0,0,0,0,0,0,0,0,0,0,0,0,0,0,0,0,0,0,0,0,0,0,0,0,0,0,0,0,0],"id":33,"left_children":[1,3,5,7,9,11,13,15,-1,17,19,21,23,25,27,-1,-1,-1,29,31,33,35,37,39,41,43,45,47,49,-1,-1,-1,-1,-1,-1,-1,-1,-1,-1,-1,-1,-1,-1,-1,-1,-1,-1,-1,-1,-1,-1],"loss_changes":[7.0335093E0,1.1993513E0,5.1374383E0,